{"learner":{"attributes":{"scikit_learn":"{\"_estimator_type\": \"regressor\"}"},"feature_names":["Automatic","CNG and OIL","HYBRID","LPG and OIL","OIL","brand","car_model","model_year","body_type","engine_capacity","kilometers_run"],"feature_types":["float","float","float","float","float","int","int","int","float","float","float"],"gradient_booster":{"model":{"gbtree_model_param":{"num_parallel_tree":"1","num_trees":"95"},"iteration_indptr":[0,1,2,3,4,5,6,7,8,9,10,11,12,13,14,15,16,17,18,19,20,21,22,23,24,25,26,27,28,29,30,31,32,33,34,35,36,37,38,39,40,41,42,43,44,45,46,47,48,49,50,51,52,53,54,55,56,57,58,59,60,61,62,63,64,65,66,67,68,69,70,71,72,73,74,75,76,77,78,79,80,81,82,83,84,85,86,87,88,89,90,91,92,93,94,95],"tree_info":[0,0,0,0,0,0,0,0,0,0,0,0,0,0,0,0,0,0,0,0,0,0,0,0,0,0,0,0,0,0,0,0,0,0,0,0,0,0,0,0,0,0,0,0,0,0,0,0,0,0,0,0,0,0,0,0,0,0,0,0,0,0,0,0,0,0,0,0,0,0,0,0,0,0,0,0,0,0,0,0,0,0,0,0,0,0,0,0,0,0,0,0,0,0,0],"trees":[{"base_weights":[-2.96343E-2,-4.4370772E5,1.1014849E6,-8.1445494E5,-7.530621E4,7.630231E5,1.5672995E6,-1.2082272E6,-6.812225E5,-1.7086066E5,3.3661853E5,4.0727678E5,1.1574789E6,1.4469798E6,2.2789298E5,-1.2181319E5,-2.6240188E4,-8.3432944E5,-5.2748444E5,-7.422351E5,-1.1933273E5,-1.0904962E5,4.6654872E5,2.2721027E5,1.023309E6,1.0022112E5,1.8801767E5,1.3406338E6,2.0998766E5,-8.626275E4,-9.5843E3,-5.0362297E4,-8.5316984E4,-7.889918E4,-2.2986918E4,-2.5475781E4,1.815963E4,1.4269319E3,-5.2486918E4,2.8746006E4,6.3194883E4,1.0901683E5,1.0430995E4,1.0801831E5,8.5098125E3,1.3497612E5,3.3259812E4],"categories":[],"categories_nodes":[],"categories_segments":[],"categories_sizes":[],"default_left":[0,0,0,0,0,0,0,0,0,0,0,0,0,0,0,0,0,0,0,0,0,0,0,0,0,0,0,0,0,0,0,0,0,0,0,0,0,0,0,0,0,0,0,0,0,0,0],"id":0,"left_children":[1,3,5,7,9,11,13,15,17,19,21,23,25,27,-1,-1,-1,29,31,33,35,37,39,41,43,-1,-1,45,-1,-1,-1,-1,-1,-1,-1,-1,-1,-1,-1,-1,-1,-1,-1,-1,-1,-1,-1],"loss_changes":[3.880574E14,7.724514E13,3.4750698E13,1.3971545E13,1.1275468E13,1.8332288E13,4.8366533E12,3.3612313E11,4.573578E12,6.7419106E12,3.1777882E12,7.7542216E12,5.185007E12,3.0172145E12,0E0,0E0,0E0,2.1115804E12,4.1740245E11,2.7380836E11,8.7674784E12,6.7410906E11,1.0624329E12,5.9315795E12,7.6183765E11,0E0,0E0,2.4113054E11,0E0,0E0,0E0,0E0,0E0,0E0,0E0,0E0,0E0,0E0,0E0,0E0,0E0,0E0,0E0,0E0,0E0,0E0,0E0],"parents":[2147483647,0,0,1,1,2,2,3,3,4,4,5,5,6,6,7,7,8,8,9,9,10,10,11,11,12,12,13,13,17,17,18,18,19,19,20,20,21,21,22,22,23,23,24,24,27,27],"right_children":[2,4,6,8,10,12,14,16,18,20,22,24,26,28,-1,-1,-1,30,32,34,36,38,40,42,44,-1,-1,46,-1,-1,-1,-1,-1,-1,-1,-1,-1,-1,-1,-1,-1,-1,-1,-1,-1,-1,-1],"split_conditions":[2.016E3,2.009E3,2.017E3,2.001E3,4.028169E-1,4.028169E-1,2.019E3,7.9492956E-1,2.005E3,3.3267605E-1,2.011E3,3.3E1,3.9E1,4.9295774E-1,2.2789298E5,-1.2181319E5,-2.6240188E4,5.253521E-1,4.4E1,5.7E1,3.7E1,5.6615734E-1,2.014E3,2E0,1E0,1.0022112E5,1.8801767E5,1E0,2.0998766E5,-8.626275E4,-9.5843E3,-5.0362297E4,-8.5316984E4,-7.889918E4,-2.2986918E4,-2.5475781E4,1.815963E4,1.4269319E3,-5.2486918E4,2.8746006E4,6.3194883E4,1.0901683E5,1.0430995E4,1.0801831E5,8.5098125E3,1.3497612E5,3.3259812E4],"split_indices":[7,7,7,7,9,9,7,9,7,9,7,6,6,9,0,0,0,9,6,6,6,10,7,6,1,0,0,1,0,0,0,0,0,0,0,0,0,0,0,0,0,0,0,0,0,0,0],"split_type":[0,0,0,0,0,0,0,0,0,0,0,0,0,0,0,0,0,0,0,0,0,0,0,0,0,0,0,0,0,0,0,0,0,0,0,0,0,0,0,0,0,0,0,0,0,0,0],"sum_hessian":[7.92E2,5.65E2,2.27E2,2.81E2,2.84E2,1.33E2,9.4E1,6.9E1,2.12E2,2.31E2,5.3E1,7.1E1,6.2E1,8.3E1,1.1E1,6.8E1,1E0,1.04E2,1.08E2,1.8E1,2.13E2,1.2E1,4.1E1,5.6E1,1.5E1,5.3E1,9E0,7.4E1,9E0,1E2,4E0,1.03E2,5E0,1.6E1,2E0,1.47E2,6.6E1,1E1,2E0,2.1E1,2E1,6E0,5E1,1.4E1,1E0,7.3E1,1E0],"tree_param":{"num_deleted":"0","num_feature":"11","num_nodes":"47","size_leaf_vector":"1"}},{"base_weights":[8.6053406E2,-4.001283E5,9.9629394E5,-7.056185E5,-3.52978E4,6.906329E5,1.4169498E6,-8.9199044E5,-4.6017888E5,-3.9550084E5,4.0257707E4,7.1266094E5,-2.0344575E5,1.3067844E6,2.070028E5,-1.0895195E5,-7.518093E5,-6.718812E4,-4.2811706E5,-5.7802176E4,-1.5938066E5,-9.766322E4,6.912E4,8.317177E5,5.435045E5,-3.251565E4,8.084325E3,-1.5488994E4,1.326261E6,-7.605944E4,-1.9958684E4,-7.2763445E4,-4.0312367E4,2.4969326E4,-2.703212E4,-6.5979487E3,1.8792115E4,4.2279848E4,9.7272836E4,3.203688E4,8.8393086E4,1.5717667E5,1.1653087E5],"categories":[],"categories_nodes":[],"categories_segments":[],"categories_sizes":[],"default_left":[0,0,0,0,0,0,0,0,0,0,0,0,0,0,0,0,0,0,0,0,0,0,0,0,0,0,0,0,0,0,0,0,0,0,0,0,0,0,0,0,0,0,0],"id":1,"left_children":[1,3,5,7,9,11,13,15,17,19,21,23,25,27,-1,-1,29,-1,31,-1,33,-1,35,37,39,-1,-1,-1,41,-1,-1,-1,-1,-1,-1,-1,-1,-1,-1,-1,-1,-1,-1],"loss_changes":[3.1693067E14,6.3057E13,2.8337204E13,1.3678397E13,7.064691E12,2.7841035E12,4.129846E12,3.9989165E12,6.2867584E11,1.8472339E12,6.3777066E12,2.1861929E12,1.646908E11,2.5967943E12,0E0,0E0,3.575812E11,0E0,6.049906E11,0E0,1.0205378E12,0E0,3.382894E12,3.913378E12,4.046609E12,0E0,0E0,0E0,1.4481254E12,0E0,0E0,0E0,0E0,0E0,0E0,0E0,0E0,0E0,0E0,0E0,0E0,0E0,0E0],"parents":[2147483647,0,0,1,1,2,2,3,3,4,4,5,5,6,6,7,7,8,8,9,9,10,10,11,11,12,12,13,13,16,16,18,18,20,20,22,22,23,23,24,24,28,28],"right_children":[2,4,6,8,10,12,14,16,18,20,22,24,26,28,-1,-1,30,-1,32,-1,34,-1,36,38,40,-1,-1,-1,42,-1,-1,-1,-1,-1,-1,-1,-1,-1,-1,-1,-1,-1,-1],"split_conditions":[2.016E3,2.01E3,2.017E3,2.005E3,5E-1,1E0,2.019E3,2.001E3,5E-1,2.013E3,1E0,1E0,4.1343E-1,1E0,2.070028E5,-1.0895195E5,8.8234776E-1,-6.718812E4,1E1,-5.7802176E4,2.7269584E-1,-9.766322E4,2.013E3,5E-1,1E0,-3.251565E4,8.084325E3,-1.5488994E4,1E0,-7.605944E4,-1.9958684E4,-7.2763445E4,-4.0312367E4,2.4969326E4,-2.703212E4,-6.5979487E3,1.8792115E4,4.2279848E4,9.7272836E4,3.203688E4,8.8393086E4,1.5717667E5,1.1653087E5],"split_indices":[7,7,7,7,8,1,7,7,8,7,0,8,10,0,0,0,10,0,5,0,10,0,7,8,4,0,0,0,8,0,0,0,0,0,0,0,0,0,0,0,0,0,0],"split_type":[0,0,0,0,0,0,0,0,0,0,0,0,0,0,0,0,0,0,0,0,0,0,0,0,0,0,0,0,0,0,0,0,0,0,0,0,0,0,0,0,0,0,0],"sum_hessian":[7.92E2,5.65E2,2.27E2,3.07E2,2.58E2,1.33E2,9.4E1,1.73E2,1.34E2,4.4E1,2.14E2,1.3E2,3E0,8.3E1,1.1E1,6.9E1,1.04E2,1.5E1,1.19E2,2.4E1,2E1,5E0,2.09E2,7.4E1,5.6E1,2E0,1E0,1E0,8.2E1,1.02E2,2E0,7E0,1.12E2,4E0,1.6E1,9.8E1,1.11E2,2E1,5.4E1,3.5E1,2.1E1,2.9E1,5.3E1],"tree_param":{"num_deleted":"0","num_feature":"11","num_nodes":"43","size_leaf_vector":"1"}},{"base_weights":[9.8913196E2,5.691955E5,-2.9508966E5,1.7006805E5,7.405554E5,-3.973437E5,5.297936E5,8.190473E5,-2.3257436E5,1.1432364E6,6.2555225E5,-5.2016522E5,-9.949244E4,-6.235834E4,8.675652E5,-9.695004E4,8.833455E5,-7.7852805E4,-1.9516566E5,-7.6884E4,1.2610054E6,5.551739E5,1.2695722E6,-4.2757294E5,-7.851359E5,-8.056459E5,-2.5256545E4,-2.0771222E5,3.5537605E4,3.2684444E5,1.02969525E6,7.5939937E3,-2.21365E4,1.0182018E5,5.1181273E4,2.3879926E4,-2.7136459E4,4.3566836E4,1.3695648E5,6.2738394E3,6.107134E4,1.537936E5,-2.2707268E4,-3.6255727E4,-8.091659E4,-3.9613184E4,-8.3235086E4,-4.6463335E3,-9.3945516E4,-4.952261E4,6.8977905E3,-7.3270166E3,-2.3565709E4,2.413642E4,1.13831726E2,1.5663174E4,6.717968E4,1.3341061E5,5.758284E4],"categories":[],"categories_nodes":[],"categories_segments":[],"categories_sizes":[],"default_left":[0,0,0,0,0,0,0,0,0,0,0,0,0,0,0,0,0,0,0,0,0,0,0,0,0,0,0,0,0,0,0,0,0,0,0,0,0,0,0,0,0,0,0,0,0,0,0,0,0,0,0,0,0,0,0,0,0,0,0],"id":2,"left_children":[1,3,5,7,9,11,13,15,17,19,21,23,25,27,29,31,33,-1,35,-1,37,39,41,43,45,47,49,51,53,55,57,-1,-1,-1,-1,-1,-1,-1,-1,-1,-1,-1,-1,-1,-1,-1,-1,-1,-1,-1,-1,-1,-1,-1,-1,-1,-1,-1,-1],"loss_changes":[1.3357741E14,1.8477335E13,4.4239983E13,2.1878937E13,8.0836653E12,1.6959131E13,1.1654802E13,1.9703435E12,9.100756E11,1.0202032E13,6.0939294E12,7.7360666E12,7.1614574E12,3.2043185E11,2.907133E12,8.134074E10,9.8197674E11,0E0,1.7181846E12,0E0,2.8976433E12,3.7085826E12,5.9722506E12,5.809778E12,1.2130892E12,1.2769627E12,5.570075E12,1.6546005E10,9.8849284E10,4.8192815E11,3.1003205E12,0E0,0E0,0E0,0E0,0E0,0E0,0E0,0E0,0E0,0E0,0E0,0E0,0E0,0E0,0E0,0E0,0E0,0E0,0E0,0E0,0E0,0E0,0E0,0E0,0E0,0E0,0E0,0E0],"parents":[2147483647,0,0,1,1,2,2,3,3,4,4,5,5,6,6,7,7,8,8,9,9,10,10,11,11,12,12,13,13,14,14,15,15,16,16,18,18,20,20,21,21,22,22,23,23,24,24,25,25,26,26,27,27,28,28,29,29,30,30],"right_children":[2,4,6,8,10,12,14,16,18,20,22,24,26,28,30,32,34,-1,36,-1,38,40,42,44,46,48,50,52,54,56,58,-1,-1,-1,-1,-1,-1,-1,-1,-1,-1,-1,-1,-1,-1,-1,-1,-1,-1,-1,-1,-1,-1,-1,-1,-1,-1,-1,-1],"split_conditions":[3.5658926E-1,9E0,1E0,2E0,1.8084621E-1,1E0,8E0,1E0,3E0,1E0,5.7E1,6.43521E-1,1E0,4E0,5E-1,2.3456917E-3,2.463638E-1,-7.7852805E4,2.109946E-1,-7.6884E4,7.5E-1,5E-1,6E1,3.8E1,8E0,2.5E1,5E-1,3.7497243E-1,7E0,2E1,1E0,7.5939937E3,-2.21365E4,1.0182018E5,5.1181273E4,2.3879926E4,-2.7136459E4,4.3566836E4,1.3695648E5,6.2738394E3,6.107134E4,1.537936E5,-2.2707268E4,-3.6255727E4,-8.091659E4,-3.9613184E4,-8.3235086E4,-4.6463335E3,-9.3945516E4,-4.952261E4,6.8977905E3,-7.3270166E3,-2.3565709E4,2.413642E4,1.13831726E2,1.5663174E4,6.717968E4,1.3341061E5,5.758284E4],"split_indices":[10,6,2,6,10,4,6,6,6,0,6,10,0,6,8,10,10,0,10,0,8,8,6,6,6,6,8,10,6,6,8,0,0,0,0,0,0,0,0,0,0,0,0,0,0,0,0,0,0,0,0,0,0,0,0,0,0,0,0],"split_type":[0,0,0,0,0,0,0,0,0,0,0,0,0,0,0,0,0,0,0,0,0,0,0,0,0,0,0,0,0,0,0,0,0,0,0,0,0,0,0,0,0,0,0,0,0,0,0,0,0,0,0,0,0,0,0,0,0,0,0],"sum_hessian":[7.92E2,2.71E2,5.21E2,8.2E1,1.89E2,4.64E2,5.7E1,3.1E1,5.1E1,4E1,1.49E2,3.28E2,1.36E2,2.1E1,3.6E1,2E0,2.9E1,2E0,4.9E1,2E0,3.8E1,1.36E2,1.3E1,2.45E2,8.3E1,1.2E1,1.24E2,8E0,1.3E1,9E0,2.7E1,1E0,1E0,2E1,9E0,7E0,4.2E1,5E0,3.3E1,1.4E1,1.22E2,1.1E1,2E0,2.11E2,3.4E1,1E1,7.3E1,2E0,1E1,2E1,1.04E2,2E0,6E0,1E0,1.2E1,7E0,2E0,1.5E1,1.2E1],"tree_param":{"num_deleted":"0","num_feature":"11","num_nodes":"59","size_leaf_vector":"1"}},{"base_weights":[1.199663E3,-3.3551266E5,8.37068E5,-6.6073294E5,-9.05619E4,5.805793E5,1.1900408E6,-9.2308E5,-5.5139375E5,-1.6723303E5,2.6395112E5,2.8991162E5,9.0355544E5,1.1290635E6,2.295008E5,-9.307115E4,-1.9825463E4,-8.574344E4,-5.1058497E5,-4.3545906E5,-8.398683E4,-6.0916375E4,3.8916056E5,6.585369E4,2.0521097E5,4.3331312E4,9.198456E5,1.0500832E6,1.6716927E5,-5.3134684E4,-2.1716412E4,-5.4566312E4,-2.200754E4,1.0870922E3,-2.6708207E4,3.5745117E3,-3.0005297E4,4.2982973E4,-1.0465406E4,-2.5798396E3,2.8980072E4,9.955205E4,7.187201E4,-1.0017269E4,1.0653324E5],"categories":[],"categories_nodes":[],"categories_segments":[],"categories_sizes":[],"default_left":[0,0,0,0,0,0,0,0,0,0,0,0,0,0,0,0,0,0,0,0,0,0,0,0,0,0,0,0,0,0,0,0,0,0,0,0,0,0,0,0,0,0,0,0,0],"id":3,"left_children":[1,3,5,7,9,11,13,15,17,19,21,23,25,27,-1,-1,-1,-1,29,31,33,35,37,-1,39,-1,41,43,-1,-1,-1,-1,-1,-1,-1,-1,-1,-1,-1,-1,-1,-1,-1,-1,-1],"loss_changes":[2.2346844E14,4.50294E13,1.9950727E13,6.4614344E12,8.850757E12,1.2317798E13,3.809703E12,2.0268555E11,1.7353178E12,5.9252157E12,2.3829424E12,2.1129027E12,8.40203E10,2.1874134E12,0E0,0E0,0E0,0E0,8.349559E11,1.3752913E12,3.563344E12,4.036855E11,8.884705E11,0E0,1.1799377E12,0E0,1.977069E11,1.5625712E12,0E0,0E0,0E0,0E0,0E0,0E0,0E0,0E0,0E0,0E0,0E0,0E0,0E0,0E0,0E0,0E0,0E0],"parents":[2147483647,0,0,1,1,2,2,3,3,4,4,5,5,6,6,7,7,8,8,9,9,10,10,11,11,12,12,13,13,18,18,19,19,20,20,21,21,22,22,24,24,26,26,27,27],"right_children":[2,4,6,8,10,12,14,16,18,20,22,24,26,28,-1,-1,-1,-1,30,32,34,36,38,-1,40,-1,42,44,-1,-1,-1,-1,-1,-1,-1,-1,-1,-1,-1,-1,-1,-1,-1,-1,-1],"split_conditions":[2.016E3,2.007E3,2.017E3,2.001E3,4.028169E-1,4.028169E-1,2.02E3,7.9492956E-1,3.5211268E-1,7.5E-1,2.011E3,2.109946E-1,1.6038208E-1,4.9295774E-1,2.295008E5,-9.307115E4,-1.9825463E4,-8.574344E4,5.253521E-1,2.013E3,4.7659457E-1,5.6615734E-1,5.253521E-1,6.585369E4,7.5E-1,4.3331312E4,4.0482667E-1,1E0,1.6716927E5,-5.3134684E4,-2.1716412E4,-5.4566312E4,-2.200754E4,1.0870922E3,-2.6708207E4,3.5745117E3,-3.0005297E4,4.2982973E4,-1.0465406E4,-2.5798396E3,2.8980072E4,9.955205E4,7.187201E4,-1.0017269E4,1.0653324E5],"split_indices":[7,7,7,7,9,9,7,9,9,8,7,10,10,9,0,0,0,0,9,7,10,10,9,0,8,0,10,0,0,0,0,0,0,0,0,0,0,0,0,0,0,0,0,0,0],"split_type":[0,0,0,0,0,0,0,0,0,0,0,0,0,0,0,0,0,0,0,0,0,0,0,0,0,0,0,0,0,0,0,0,0,0,0,0,0,0,0,0,0,0,0,0,0],"sum_hessian":[7.92E2,5.65E2,2.27E2,2.42E2,3.23E2,1.33E2,9.4E1,6.9E1,1.73E2,2.66E2,5.7E1,7.1E1,6.2E1,9.1E1,3E0,6.8E1,1E0,1.8E1,1.55E2,6.2E1,2.04E2,1.6E1,4.1E1,1.2E1,5.9E1,3E0,5.9E1,8.2E1,9E0,1.44E2,1.1E1,4E1,2.2E1,1.35E2,6.9E1,1.2E1,4E0,3.8E1,3E0,1.6E1,4.3E1,4E1,1.9E1,1E0,8.1E1],"tree_param":{"num_deleted":"0","num_feature":"11","num_nodes":"45","size_leaf_vector":"1"}},{"base_weights":[1.6226827E3,-3.026144E5,7.568708E5,-5.356065E5,-2.43744E4,5.248125E5,1.0762281E6,-6.804129E5,-3.4499962E5,-1.0289245E5,3.1423138E5,4.3832194E5,1.4520869E5,8.943675E5,1.3624359E6,-8.5762544E5,-5.844133E5,-3.1535125E5,-6.840692E4,-5.4330156E5,-6.1499383E4,-5.5697805E4,3.6714472E5,2.4126688E5,6.892958E4,3.0106284E5,9.536178E5,9.014543E4,1.5361585E6,-8.659175E4,-1.8834188E4,-6.0580613E4,1.16687E3,-3.653995E4,-1.5019062E4,-5.7134062E4,-2.1265926E4,-1.8435285E4,2.1594588E4,5.637622E3,-1.5384737E4,3.9465996E4,-1.3127867E4,1.1729447E4,6.962776E4,3.8296137E4,-9.516406E3,8.019474E4,1.14467125E5,2.3792288E5,1.351369E5],"categories":[],"categories_nodes":[],"categories_segments":[],"categories_sizes":[],"default_left":[0,0,0,0,0,0,0,0,0,0,0,0,0,0,0,0,0,0,0,0,0,0,0,0,0,0,0,0,0,0,0,0,0,0,0,0,0,0,0,0,0,0,0,0,0,0,0,0,0,0,0],"id":4,"left_children":[1,3,5,7,9,11,13,15,17,19,21,23,-1,25,27,29,31,33,-1,35,37,39,41,43,-1,45,47,-1,49,-1,-1,-1,-1,-1,-1,-1,-1,-1,-1,-1,-1,-1,-1,-1,-1,-1,-1,-1,-1,-1,-1],"loss_changes":[1.8244023E14,3.667943E13,1.6332158E13,8.2663944E12,6.9182785E12,1.0110378E13,3.726228E12,2.4589275E12,1.1414138E12,3.8130934E12,9.795839E11,5.9662003E12,0E0,1.857263E12,1.4181235E12,1.643538E11,1.4862852E12,9.866366E11,0E0,4.537503E10,6.6523213E12,8.567346E10,6.41523E11,3.9233525E12,0E0,2.6359687E11,6.757779E11,0E0,5.2375532E11,0E0,0E0,0E0,0E0,0E0,0E0,0E0,0E0,0E0,0E0,0E0,0E0,0E0,0E0,0E0,0E0,0E0,0E0,0E0,0E0,0E0,0E0],"parents":[2147483647,0,0,1,1,2,2,3,3,4,4,5,5,6,6,7,7,8,8,9,9,10,10,11,11,13,13,14,14,15,15,16,16,17,17,19,19,20,20,21,21,22,22,23,23,25,25,26,26,28,28],"right_children":[2,4,6,8,10,12,14,16,18,20,22,24,-1,26,28,30,32,34,-1,36,38,40,42,44,-1,46,48,-1,50,-1,-1,-1,-1,-1,-1,-1,-1,-1,-1,-1,-1,-1,-1,-1,-1,-1,-1,-1,-1,-1,-1],"split_conditions":[2.016E3,2.01E3,2.017E3,2.005E3,4.028169E-1,5.6E1,2.018E3,2E3,4.4E1,3.3267605E-1,2E0,4.028169E-1,1.4520869E5,3E0,1E1,7.9492956E-1,5.253521E-1,3.7E1,-6.840692E4,5.7E1,3.7E1,4.6E1,5.253521E-1,3.3E1,6.892958E4,1E0,4.028169E-1,9.014543E4,1.1E1,-8.659175E4,-1.8834188E4,-6.0580613E4,1.16687E3,-3.653995E4,-1.5019062E4,-5.7134062E4,-2.1265926E4,-1.8435285E4,2.1594588E4,5.637622E3,-1.5384737E4,3.9465996E4,-1.3127867E4,1.1729447E4,6.962776E4,3.8296137E4,-9.516406E3,8.019474E4,1.14467125E5,2.3792288E5,1.351369E5],"split_indices":[7,7,7,7,9,6,7,7,6,9,5,9,0,5,6,9,9,6,0,6,6,6,9,6,0,5,9,0,6,0,0,0,0,0,0,0,0,0,0,0,0,0,0,0,0,0,0,0,0,0,0],"split_type":[0,0,0,0,0,0,0,0,0,0,0,0,0,0,0,0,0,0,0,0,0,0,0,0,0,0,0,0,0,0,0,0,0,0,0,0,0,0,0,0,0,0,0,0,0,0,0,0,0,0,0],"sum_hessian":[7.92E2,5.65E2,2.27E2,3.07E2,2.58E2,1.33E2,9.4E1,1.73E2,1.34E2,2.1E2,4.8E1,1.23E2,1E1,6E1,3.4E1,5.8E1,1.15E2,1.25E2,9E0,1.7E1,1.93E2,6E0,4.2E1,7E1,5.3E1,6E0,5.4E1,1.1E1,2.3E1,5.7E1,1E0,1.11E2,4E0,9.5E1,3E1,1.5E1,2E0,1.34E2,5.9E1,3E0,3E0,4E1,2E0,5.6E1,1.4E1,5E0,1E0,3.3E1,2.1E1,2E0,2.1E1],"tree_param":{"num_deleted":"0","num_feature":"11","num_nodes":"51","size_leaf_vector":"1"}},{"base_weights":[2.2658044E3,2.8186594E5,-3.730154E5,-4.8765647E5,3.3539603E5,-7.7264644E5,-3.317158E5,-1.2381543E5,-5.7345777E4,2.8471612E5,1.2110169E6,-1.9495082E4,-7.854046E4,-2.975946E5,-6.2810625E5,-2.50433E5,3.17945E4,-6.292821E5,3.0951122E5,1.403088E5,7.56341E4,-3.6135638E5,7.0807734E3,-6.5224938E4,-1.8535408E4,-4.0427477E4,-1.3880971E4,-7.504151E4,-2.2969576E4,1.0834499E4,3.9306137E4,-4.3068992E4,-1.1713305E4],"categories":[],"categories_nodes":[],"categories_segments":[],"categories_sizes":[],"default_left":[0,0,0,0,0,0,0,0,0,0,0,0,0,0,0,0,0,0,0,0,0,0,0,0,0,0,0,0,0,0,0,0,0],"id":5,"left_children":[1,3,5,7,9,11,13,15,-1,17,19,-1,-1,21,23,25,-1,27,29,-1,-1,31,-1,-1,-1,-1,-1,-1,-1,-1,-1,-1,-1],"loss_changes":[8.331359E13,1.8906186E13,5.3387576E12,8.655376E11,1.8559535E13,7.5363254E10,2.9380617E12,4.7116632E11,0E0,9.350488E12,9.473779E11,0E0,0E0,6.579292E12,2.1047542E11,4.69167E10,0E0,3.6006658E11,6.5795585E12,0E0,0E0,3.9795745E12,0E0,0E0,0E0,0E0,0E0,0E0,0E0,0E0,0E0,0E0,0E0],"parents":[2147483647,0,0,1,1,2,2,3,3,4,4,5,5,6,6,7,7,9,9,10,10,13,13,14,14,15,15,17,17,18,18,21,21],"right_children":[2,4,6,8,10,12,14,16,-1,18,20,-1,-1,22,24,26,-1,28,30,-1,-1,32,-1,-1,-1,-1,-1,-1,-1,-1,-1,-1,-1],"split_conditions":[1E0,3.774648E-1,3.7915492E-1,1E1,5.7E1,1.4366198E-1,3.8E1,8E0,-5.7345777E4,1E0,1E0,-1.9495082E4,-7.854046E4,3.5E1,4.028169E-1,5E-1,3.17945E4,1E1,9E0,1.403088E5,7.56341E4,5.2E-1,7.0807734E3,-6.5224938E4,-1.8535408E4,-4.0427477E4,-1.3880971E4,-7.504151E4,-2.2969576E4,1.0834499E4,3.9306137E4,-4.3068992E4,-1.1713305E4],"split_indices":[1,9,9,6,6,9,6,6,0,0,4,0,0,6,9,8,0,5,6,0,0,9,0,0,0,0,0,0,0,0,0,0,0],"split_type":[0,0,0,0,0,0,0,0,0,0,0,0,0,0,0,0,0,0,0,0,0,0,0,0,0,0,0,0,0,0,0,0,0],"sum_hessian":[7.92E2,4.54E2,3.38E2,2.9E1,4.25E2,3E1,3.08E2,6E0,2.3E1,4.03E2,2.2E1,1E0,2.9E1,2.78E2,3E1,5E0,1E0,1E1,3.93E2,1.4E1,8E0,2.37E2,4.1E1,2.8E1,2E0,1E0,4E0,7E0,3E0,1.16E2,2.77E2,1.84E2,5.3E1],"tree_param":{"num_deleted":"0","num_feature":"11","num_nodes":"33","size_leaf_vector":"1"}},{"base_weights":[1.8610466E3,-2.583098E5,6.4771556E5,-5.347783E5,-8.871025E4,4.365831E5,9.3870544E5,-7.078897E5,-4.481168E5,-2.1180744E5,4.134383E4,2.1156377E5,6.868181E5,8.84939E5,1.9406571E6,-7.9754056E5,-6.2502594E4,-5.1014744E5,-3.225667E5,-2.5239566E5,2.9043732E4,-7.974228E4,2.5210777E5,8.4530125E4,6.508984E5,5.830643E5,1.1784069E5,8.22337E5,1.3160419E5,2.1944095E5,5.897E4,-8.1134695E4,-1.9857781E4,-2.8564031E4,-5.514784E4,-3.6045883E4,-7.3839233E3,3.4229688E2,-3.1637795E4,-5.122173E4,6.9562134E3,-4.5634937E3,-6.633304E4,-3.306141E4,3.0804266E4,7.900452E4,-1.3962738E3,6.886804E4,4.2084624E3,7.735872E4,5.331128E4,-5.2885127E3,8.336554E4],"categories":[],"categories_nodes":[],"categories_segments":[],"categories_sizes":[],"default_left":[0,0,0,0,0,0,0,0,0,0,0,0,0,0,0,0,0,0,0,0,0,0,0,0,0,0,0,0,0,0,0,0,0,0,0,0,0,0,0,0,0,0,0,0,0,0,0,0,0,0,0,0,0],"id":6,"left_children":[1,3,5,7,9,11,13,15,17,19,21,23,25,27,29,31,-1,33,35,37,39,41,43,45,47,49,-1,51,-1,-1,-1,-1,-1,-1,-1,-1,-1,-1,-1,-1,-1,-1,-1,-1,-1,-1,-1,-1,-1,-1,-1,-1,-1],"loss_changes":[1.3341709E14,2.6491694E13,1.3597908E13,2.9082297E12,5.6440285E12,7.399929E12,3.4004145E12,2.1535654E10,9.724892E11,1.776735E12,4.409644E12,3.96332E12,2.526177E12,1.4006627E12,7.719092E10,8.69668E10,0E0,7.332671E11,4.540486E11,2.5381013E12,6.2776875E11,2.1592392E12,2.1552958E12,3.9718586E12,3.390518E11,1.0150425E11,0E0,8.6629574E11,0E0,0E0,0E0,0E0,0E0,0E0,0E0,0E0,0E0,0E0,0E0,0E0,0E0,0E0,0E0,0E0,0E0,0E0,0E0,0E0,0E0,0E0,0E0,0E0,0E0],"parents":[2147483647,0,0,1,1,2,2,3,3,4,4,5,5,6,6,7,7,8,8,9,9,10,10,11,11,12,12,13,13,14,14,15,15,17,17,18,18,19,19,20,20,21,21,22,22,23,23,24,24,25,25,27,27],"right_children":[2,4,6,8,10,12,14,16,18,20,22,24,26,28,30,32,-1,34,36,38,40,42,44,46,48,50,-1,52,-1,-1,-1,-1,-1,-1,-1,-1,-1,-1,-1,-1,-1,-1,-1,-1,-1,-1,-1,-1,-1,-1,-1,-1,-1],"split_conditions":[2.016E3,2.006E3,2.017E3,2.001E3,2.012E3,4.028169E-1,2.02E3,1.997E3,4.6478873E-1,4.9295774E-1,3.1E1,3.3E1,3.9E1,4.9295774E-1,1.1E1,7.183099E-1,-6.2502594E4,2E0,6.3380283E-1,2E0,1E0,2.4E1,3.2957748E-1,2E0,1E0,1.9E1,1.1784069E5,1E0,1.3160419E5,2.1944095E5,5.897E4,-8.1134695E4,-1.9857781E4,-2.8564031E4,-5.514784E4,-3.6045883E4,-7.3839233E3,3.4229688E2,-3.1637795E4,-5.122173E4,6.9562134E3,-4.5634937E3,-6.633304E4,-3.306141E4,3.0804266E4,7.900452E4,-1.3962738E3,6.886804E4,4.2084624E3,7.735872E4,5.331128E4,-5.2885127E3,8.336554E4],"split_indices":[7,7,7,7,7,9,7,7,9,9,6,6,6,9,6,9,0,6,9,6,0,6,9,6,1,6,0,0,0,0,0,0,0,0,0,0,0,0,0,0,0,0,0,0,0,0,0,0,0,0,0,0,0],"split_type":[0,0,0,0,0,0,0,0,0,0,0,0,0,0,0,0,0,0,0,0,0,0,0,0,0,0,0,0,0,0,0,0,0,0,0,0,0,0,0,0,0,0,0,0,0,0,0,0,0,0,0,0,0],"sum_hessian":[7.92E2,5.65E2,2.27E2,2.14E2,3.51E2,1.33E2,9.4E1,6.9E1,1.45E2,1.8E2,1.71E2,7.1E1,6.2E1,9.1E1,3E0,2.9E1,4E1,9.5E1,5E1,1.54E2,2.6E1,1.09E2,6.2E1,5.6E1,1.5E1,5.3E1,9E0,8.2E1,9E0,2E0,1E0,2.8E1,1E0,1.6E1,7.9E1,4.3E1,7E0,3.1E1,1.23E2,1E0,2.5E1,1.04E2,5E0,5E0,5.7E1,6E0,5E1,1.4E1,1E0,8E0,4.5E1,1E0,8.1E1],"tree_param":{"num_deleted":"0","num_feature":"11","num_nodes":"53","size_leaf_vector":"1"}},{"base_weights":[2.2398088E3,-2.3325505E5,5.868356E5,-4.5851694E5,-6.358871E4,3.9590384E5,8.4997275E5,-6.2431806E5,-3.7331197E5,-1.3871852E5,9.895893E4,3.3010822E5,1.1016087E5,7.987243E5,1.8161941E6,-7.211529E4,-5.5644575E5,-6.039349E5,-3.4051784E5,-1.0666479E5,-4.114154E5,-5.1283254E4,2.1187316E5,1.9216298E5,4.6062406E5,2.7203916E5,8.456462E5,2.0481155E5,5.60215E4,-6.1511258E4,-3.5327066E4,-6.2636168E4,-1.0012612E4,-3.957837E4,-2.6640932E4,-6.688359E3,-3.2137896E4,-4.0646501E3,-4.649984E4,3.596123E4,-1.6399639E4,2.715587E4,7.192685E3,7.223271E4,1.22461E4,1.0843479E4,4.764263E4,3.6195965E4,-2.8455E3,6.750586E4,9.7189125E4],"categories":[],"categories_nodes":[],"categories_segments":[],"categories_sizes":[],"default_left":[0,0,0,0,0,0,0,0,0,0,0,0,0,0,0,0,0,0,0,0,0,0,0,0,0,0,0,0,0,0,0,0,0,0,0,0,0,0,0,0,0,0,0,0,0,0,0,0,0,0,0],"id":7,"left_children":[1,3,5,7,9,11,13,15,17,19,21,23,-1,25,27,-1,29,31,33,35,37,39,41,43,45,47,49,-1,-1,-1,-1,-1,-1,-1,-1,-1,-1,-1,-1,-1,-1,-1,-1,-1,-1,-1,-1,-1,-1,-1,-1],"loss_changes":[1.09308646E14,2.1603002E13,1.1118496E13,3.1998177E12,3.9704713E12,5.8582767E12,3.2535174E12,1.31082486E11,1.0271284E12,1.8966079E12,1.7582069E12,2.1439866E12,0E0,2.0435572E12,1.776812E10,0E0,4.0252E11,1.5196226E11,4.8843194E11,1.6868227E12,4.3803843E11,2.1430748E12,4.732808E11,2.20266E12,2.989574E11,2.5348473E11,1.1529219E12,0E0,0E0,0E0,0E0,0E0,0E0,0E0,0E0,0E0,0E0,0E0,0E0,0E0,0E0,0E0,0E0,0E0,0E0,0E0,0E0,0E0,0E0,0E0,0E0],"parents":[2147483647,0,0,1,1,2,2,3,3,4,4,5,5,6,6,7,7,8,8,9,9,10,10,11,11,13,13,14,14,16,16,17,17,18,18,19,19,20,20,21,21,22,22,23,23,24,24,25,25,26,26],"right_children":[2,4,6,8,10,12,14,16,18,20,22,24,-1,26,28,-1,30,32,34,36,38,40,42,44,46,48,50,-1,-1,-1,-1,-1,-1,-1,-1,-1,-1,-1,-1,-1,-1,-1,-1,-1,-1,-1,-1,-1,-1,-1,-1],"split_conditions":[2.016E3,2.007E3,2.017E3,2.002E3,2.014E3,5.6E1,2.02E3,1.997E3,1E1,6.3969E-1,8E0,2.2E1,1.1016087E5,3E0,1E0,-7.211529E4,2.4E1,5.8E1,2.005E3,3.8E1,2E0,2E0,3.8E1,2E0,7E0,2.463638E-1,1E1,2.0481155E5,5.60215E4,-6.1511258E4,-3.5327066E4,-6.2636168E4,-1.0012612E4,-3.957837E4,-2.6640932E4,-6.688359E3,-3.2137896E4,-4.0646501E3,-4.649984E4,3.596123E4,-1.6399639E4,2.715587E4,7.192685E3,7.223271E4,1.22461E4,1.0843479E4,4.764263E4,3.6195965E4,-2.8455E3,6.750586E4,9.7189125E4],"split_indices":[7,7,7,7,7,6,7,7,5,10,6,6,0,5,5,0,6,6,7,6,6,6,6,6,5,10,6,0,0,0,0,0,0,0,0,0,0,0,0,0,0,0,0,0,0,0,0,0,0,0,0],"split_type":[0,0,0,0,0,0,0,0,0,0,0,0,0,0,0,0,0,0,0,0,0,0,0,0,0,0,0,0,0,0,0,0,0,0,0,0,0,0,0,0,0,0,0,0,0,0,0,0,0,0,0],"sum_hessian":[7.92E2,5.65E2,2.27E2,2.42E2,3.23E2,1.33E2,9.4E1,8E1,1.62E2,2.21E2,1.02E2,1.23E2,1E1,9.1E1,3E0,2.9E1,5.1E1,1.8E1,1.44E2,1.99E2,2.2E1,4.4E1,5.8E1,6.1E1,6.2E1,8E0,8.3E1,2E0,1E0,3.8E1,1.3E1,1.7E1,1E0,8E1,6.4E1,1.69E2,3E1,3E0,1.9E1,9E0,3.5E1,4E1,1.8E1,6E0,5.5E1,3E0,5.9E1,6E0,2E0,3.8E1,4.5E1],"tree_param":{"num_deleted":"0","num_feature":"11","num_nodes":"51","size_leaf_vector":"1"}},{"base_weights":[2.4807705E3,-2.1053608E5,5.312749E5,-3.7280675E5,-1.6752691E4,4.4015884E5,1.02113875E6,-5.2030906E5,-2.784616E5,-7.9509516E4,2.5382775E5,2.835832E5,6.4182244E5,9.043977E5,1.699783E5,-5.7238606E5,-3.6724812E5,-2.3583022E5,-4.2763822E5,-1.5296267E5,5.854516E4,-6.561714E4,2.9992744E5,1.5202411E5,5.6491074E4,1.02564016E5,5.636078E5,6.309403E5,1.0369251E5,-2.197104E4,-5.9121133E4,-3.969942E4,-5.2340347E3,-2.6813441E4,-6.3583857E3,-5.108432E4,-7.503804E3,-1.0472834E4,-5.727005E4,-3.632505E4,1.6301831E4,3.8072188E3,-1.5290219E4,3.247861E4,-1.3978338E4,6.025182E4,2.3984373E3,4.856612E4,7.554768E4,1.0604E4,6.658453E4],"categories":[],"categories_nodes":[],"categories_segments":[],"categories_sizes":[],"default_left":[0,0,0,0,0,0,0,0,0,0,0,0,0,0,0,0,0,0,0,0,0,0,0,0,0,0,0,0,0,0,0,0,0,0,0,0,0,0,0,0,0,0,0,0,0,0,0,0,0,0,0],"id":8,"left_children":[1,3,5,7,9,11,13,15,17,19,21,23,25,27,-1,29,31,33,35,37,39,41,43,45,-1,-1,47,49,-1,-1,-1,-1,-1,-1,-1,-1,-1,-1,-1,-1,-1,-1,-1,-1,-1,-1,-1,-1,-1,-1,-1],"loss_changes":[8.943701E13,1.7791824E13,9.727187E12,4.1412838E12,4.4182007E12,5.94366E12,1.235621E12,7.383338E11,1.1074745E12,2.1486118E12,7.412693E11,4.0223627E12,1.9436342E12,5.0545977E11,0E0,4.477147E11,2.8834162E11,8.17592E11,1.164528E12,2.733939E12,3.3201245E12,6.917502E10,5.154168E11,4.426996E12,0E0,0E0,7.0989015E11,1.6757555E11,0E0,0E0,0E0,0E0,0E0,0E0,0E0,0E0,0E0,0E0,0E0,0E0,0E0,0E0,0E0,0E0,0E0,0E0,0E0,0E0,0E0,0E0,0E0],"parents":[2147483647,0,0,1,1,2,2,3,3,4,4,5,5,6,6,7,7,8,8,9,9,10,10,11,11,12,12,13,13,15,15,16,16,17,17,18,18,19,19,20,20,21,21,22,22,23,23,26,26,27,27],"right_children":[2,4,6,8,10,12,14,16,18,20,22,24,26,28,-1,30,32,34,36,38,40,42,44,46,-1,-1,48,50,-1,-1,-1,-1,-1,-1,-1,-1,-1,-1,-1,-1,-1,-1,-1,-1,-1,-1,-1,-1,-1,-1,-1],"split_conditions":[2.016E3,2.01E3,2.018E3,2.004E3,4.028169E-1,4.028169E-1,2.02E3,4.6478873E-1,3.8E1,3.7E1,2E0,3.5E1,7E0,2.2E1,1.699783E5,2E0,7.9492956E-1,3.7E1,4.028169E-1,2.4E1,3.3267605E-1,4.6E1,5.253521E-1,2E0,5.6491074E4,1.02564016E5,2.017E3,1E0,1.0369251E5,-2.197104E4,-5.9121133E4,-3.969942E4,-5.2340347E3,-2.6813441E4,-6.3583857E3,-5.108432E4,-7.503804E3,-1.0472834E4,-5.727005E4,-3.632505E4,1.6301831E4,3.8072188E3,-1.5290219E4,3.247861E4,-1.3978338E4,6.025182E4,2.3984373E3,4.856612E4,7.554768E4,1.0604E4,6.658453E4],"split_indices":[7,7,7,7,9,9,7,9,6,6,5,6,5,6,0,6,9,6,9,6,9,6,9,6,0,0,7,5,0,0,0,0,0,0,0,0,0,0,0,0,0,0,0,0,0,0,0,0,0,0,0],"split_type":[0,0,0,0,0,0,0,0,0,0,0,0,0,0,0,0,0,0,0,0,0,0,0,0,0,0,0,0,0,0,0,0,0,0,0,0,0,0,0,0,0,0,0,0,0,0,0,0,0,0,0],"sum_hessian":[7.92E2,5.65E2,2.27E2,3.07E2,2.58E2,1.93E2,3.4E1,1.18E2,1.89E2,2.1E2,4.8E1,1.1E2,8.3E1,3.1E1,3E0,8.6E1,3.2E1,1.49E2,4E1,1.37E2,7.3E1,6E0,4.2E1,7.6E1,3.4E1,1.2E1,7.1E1,1.2E1,1.9E1,5E0,8.1E1,2.9E1,3E0,1.25E2,2.4E1,3.2E1,8E0,1.24E2,1.3E1,1.4E1,5.9E1,3E0,3E0,4E1,2E0,1.6E1,6E1,5.3E1,1.8E1,1E0,1.1E1],"tree_param":{"num_deleted":"0","num_feature":"11","num_nodes":"51","size_leaf_vector":"1"}},{"base_weights":[2.7347913E3,-1.900099E5,4.8120306E5,-3.5079562E5,-3.0249969E4,3.979256E5,9.290495E5,-5.109667E5,-2.84832E5,-8.078467E4,1.874223E5,2.5629827E5,5.803388E5,1.3453688E6,7.558671E5,-5.351781E5,-1.7856311E5,-5.09402E4,-2.6009472E5,-2.8376362E5,-1.3050028E4,-5.929592E4,2.5932502E5,8.182209E4,4.3245906E5,9.309656E4,5.0897094E5,1.4993708E5,5.3757457E4,1.00738E4,7.771899E4,-6.1585887E4,-4.769648E4,-3.2190795E4,1.1986597E4,-3.196375E4,-2.1121916E4,-2.4360123E4,-4.174193E4,2.2975457E4,-3.7248926E3,-3.42102E4,-7.22025E2,2.9010068E4,-1.0556916E4,4.7829683E3,2.5780053E4,-2.7400936E4,4.9324105E4,4.3799457E4,6.839052E4],"categories":[],"categories_nodes":[],"categories_segments":[],"categories_sizes":[],"default_left":[0,0,0,0,0,0,0,0,0,0,0,0,0,0,0,0,0,0,0,0,0,0,0,0,0,0,0,0,0,0,0,0,0,0,0,0,0,0,0,0,0,0,0,0,0,0,0,0,0,0,0],"id":9,"left_children":[1,3,5,7,9,11,13,15,17,19,21,23,25,27,29,31,33,-1,35,37,39,41,43,45,47,-1,49,-1,-1,-1,-1,-1,-1,-1,-1,-1,-1,-1,-1,-1,-1,-1,-1,-1,-1,-1,-1,-1,-1,-1,-1],"loss_changes":[7.322366E13,1.4528295E13,8.1336824E12,2.8339213E12,3.150142E12,4.8631927E12,1.506552E12,5.563241E11,9.8966805E11,3.185997E12,9.7332114E11,3.3762962E12,1.6281386E12,3.1359343E11,2.9887457E11,5.8506346E10,3.3803364E11,0E0,4.6796164E11,2.0965596E11,1.0367886E12,1.8898507E11,5.0228022E11,3.2863948E11,2.496885E12,0E0,5.9442096E11,0E0,0E0,0E0,0E0,0E0,0E0,0E0,0E0,0E0,0E0,0E0,0E0,0E0,0E0,0E0,0E0,0E0,0E0,0E0,0E0,0E0,0E0,0E0,0E0],"parents":[2147483647,0,0,1,1,2,2,3,3,4,4,5,5,6,6,7,7,8,8,9,9,10,10,11,11,12,12,13,13,14,14,15,15,16,16,18,18,19,19,20,20,21,21,22,22,23,23,24,24,26,26],"right_children":[2,4,6,8,10,12,14,16,18,20,22,24,26,28,30,32,34,-1,36,38,40,42,44,46,48,-1,50,-1,-1,-1,-1,-1,-1,-1,-1,-1,-1,-1,-1,-1,-1,-1,-1,-1,-1,-1,-1,-1,-1,-1,-1],"split_conditions":[2.016E3,2.009E3,2.018E3,2.002E3,4.028169E-1,4.028169E-1,1E0,5.253521E-1,1E1,7.5E-1,2.011E3,1E0,7E0,7E0,1E0,1.997E3,2E3,-5.09402E4,2.005E3,5E-1,1E0,4.9295774E-1,5.253521E-1,2.017E3,1E0,9.309656E4,2.017E3,1.4993708E5,5.3757457E4,1.00738E4,7.771899E4,-6.1585887E4,-4.769648E4,-3.2190795E4,1.1986597E4,-3.196375E4,-2.1121916E4,-2.4360123E4,-4.174193E4,2.2975457E4,-3.7248926E3,-3.42102E4,-7.22025E2,2.9010068E4,-1.0556916E4,4.7829683E3,2.5780053E4,-2.7400936E4,4.9324105E4,4.3799457E4,6.839052E4],"split_indices":[7,7,7,7,9,9,8,9,5,8,7,4,5,5,4,7,7,0,7,8,5,9,9,7,8,0,7,0,0,0,0,0,0,0,0,0,0,0,0,0,0,0,0,0,0,0,0,0,0,0,0],"split_type":[0,0,0,0,0,0,0,0,0,0,0,0,0,0,0,0,0,0,0,0,0,0,0,0,0,0,0,0,0,0,0,0,0,0,0,0,0,0,0,0,0,0,0,0,0,0,0,0,0,0,0],"sum_hessian":[7.92E2,5.65E2,2.27E2,2.81E2,2.84E2,1.93E2,3.4E1,8E1,2.01E2,2.31E2,5.3E1,1.1E2,8.3E1,8E0,2.6E1,7.4E1,6E0,1.8E1,1.83E2,5.7E1,1.74E2,1.2E1,4.1E1,5.6E1,5.4E1,1.2E1,7.1E1,6E0,2E0,1E0,2.5E1,2.7E1,4.7E1,4E0,2E0,8E1,1.03E2,4.6E1,1.1E1,1.5E1,1.59E2,1E0,1.1E1,3.8E1,3E0,4.8E1,8E0,4E0,5E1,5.3E1,1.8E1],"tree_param":{"num_deleted":"0","num_feature":"11","num_nodes":"51","size_leaf_vector":"1"}},{"base_weights":[2.7796113E3,-1.7153339E5,4.354918E5,-2.866273E5,1.2138849E4,3.5946178E5,8.4447275E5,-4.241626E5,-2.1422156E5,-4.0238934E4,2.3383184E5,2.3114131E5,5.247488E5,1.2334646E6,6.83532E5,-4.6779062E5,-2.9628984E5,-4.0449225E5,-1.9615852E5,-2.1887244E5,2.0050223E4,2.6183445E5,-9.76515E4,7.4176055E4,3.8961184E5,8.450305E4,4.59632E5,1.4058489E6,4.2007984E4,9.570112E3,7.024601E4,-5.456477E4,-4.2759586E4,-3.21835E4,-3.062875E3,-1.084515E4,-4.1491387E4,-3.2218035E4,-1.7523031E4,-5.0509434E4,-1.8640197E4,4.283863E3,-2.152018E4,1.4009596E4,3.826068E4,-1.9657959E3,-1.6581607E4,-5.6861597E2,2.0148805E4,-2.5208865E4,4.4488418E4,3.950062E4,6.1911426E4,1.5130281E5,3.81387E4],"categories":[],"categories_nodes":[],"categories_segments":[],"categories_sizes":[],"default_left":[0,0,0,0,0,0,0,0,0,0,0,0,0,0,0,0,0,0,0,0,0,0,0,0,0,0,0,0,0,0,0,0,0,0,0,0,0,0,0,0,0,0,0,0,0,0,0,0,0,0,0,0,0,0,0],"id":10,"left_children":[1,3,5,7,9,11,13,15,17,19,21,23,25,27,29,31,33,35,37,39,41,43,45,47,49,-1,51,53,-1,-1,-1,-1,-1,-1,-1,-1,-1,-1,-1,-1,-1,-1,-1,-1,-1,-1,-1,-1,-1,-1,-1,-1,-1,-1,-1],"loss_changes":[5.98886E13,1.1968472E13,6.786061E12,3.3746384E12,2.5523907E12,3.9933926E12,1.3480493E12,5.2527786E11,7.111348E11,1.9213885E12,4.154293E11,2.732155E12,1.363478E12,6.7136337E11,2.3319072E11,3.894621E10,2.1409222E11,1.3621527E10,5.0267528E11,3.240687E11,7.275954E11,5.1980114E11,1.800598E10,5.8068854E11,2.0629071E12,0E0,4.975273E11,1.9155701E11,0E0,0E0,0E0,0E0,0E0,0E0,0E0,0E0,0E0,0E0,0E0,0E0,0E0,0E0,0E0,0E0,0E0,0E0,0E0,0E0,0E0,0E0,0E0,0E0,0E0,0E0,0E0],"parents":[2147483647,0,0,1,1,2,2,3,3,4,4,5,5,6,6,7,7,8,8,9,9,10,10,11,11,12,12,13,13,14,14,15,15,16,16,17,17,18,18,19,19,20,20,21,21,22,22,23,23,24,24,26,26,27,27],"right_children":[2,4,6,8,10,12,14,16,18,20,22,24,26,28,30,32,34,36,38,40,42,44,46,48,50,-1,52,54,-1,-1,-1,-1,-1,-1,-1,-1,-1,-1,-1,-1,-1,-1,-1,-1,-1,-1,-1,-1,-1,-1,-1,-1,-1,-1,-1],"split_conditions":[2.016E3,2.011E3,2.018E3,2.004E3,4.028169E-1,4.028169E-1,1E0,4.6478873E-1,3.5211268E-1,7.5E-1,5.253521E-1,1E0,7E0,2.3526038E-1,1E0,1.997E3,7.9492956E-1,1.4366198E-1,5E-1,2.2055385E-1,5.806065E-1,2.014E3,6.619718E-1,3.405665E-1,1E0,8.450305E4,2.017E3,7E0,4.2007984E4,9.570112E3,7.024601E4,-5.456477E4,-4.2759586E4,-3.21835E4,-3.062875E3,-1.084515E4,-4.1491387E4,-3.2218035E4,-1.7523031E4,-5.0509434E4,-1.8640197E4,4.283863E3,-2.152018E4,1.4009596E4,3.826068E4,-1.9657959E3,-1.6581607E4,-5.6861597E2,2.0148805E4,-2.5208865E4,4.4488418E4,3.950062E4,6.1911426E4,1.5130281E5,3.81387E4],"split_indices":[7,7,7,7,9,9,8,9,9,8,9,4,5,10,4,7,9,9,8,10,10,7,9,10,8,0,7,5,0,0,0,0,0,0,0,0,0,0,0,0,0,0,0,0,0,0,0,0,0,0,0,0,0,0,0],"split_type":[0,0,0,0,0,0,0,0,0,0,0,0,0,0,0,0,0,0,0,0,0,0,0,0,0,0,0,0,0,0,0,0,0,0,0,0,0,0,0,0,0,0,0,0,0,0,0,0,0,0,0,0,0,0,0],"sum_hessian":[7.92E2,5.65E2,2.27E2,3.47E2,2.18E2,1.93E2,3.4E1,1.18E2,2.29E2,1.77E2,4.1E1,1.1E2,8.3E1,8E0,2.6E1,8.6E1,3.2E1,1.8E1,2.11E2,4.4E1,1.33E2,3.8E1,3E0,5.6E1,5.4E1,1.2E1,7.1E1,6E0,2E0,1E0,2.5E1,2.5E1,6.1E1,2.9E1,3E0,1E0,1.7E1,2.8E1,1.83E2,3E0,4.1E1,1.22E2,1.1E1,2E1,1.8E1,2E0,1E0,3.5E1,2.1E1,4E0,5E1,5.3E1,1.8E1,5E0,1E0],"tree_param":{"num_deleted":"0","num_feature":"11","num_nodes":"55","size_leaf_vector":"1"}},{"base_weights":[2.8153E3,-2.0698377E5,2.9779697E5,-3.4940306E5,-1.2111456E5,1.8313416E5,5.795089E5,-4.4665153E5,-2.9692838E5,-5.4890825E5,-1.0863758E5,6.846211E4,3.9369272E5,5.3820206E5,1.3846882E6,-1.8659988E4,-4.5250247E5,-3.115947E5,9.098283E4,-6.0464176E4,-7.938681E3,-1.632146E5,-2.3365592E4,4.4686266E5,2.4412678E4,7.5473695E4,3.2805072E5,1.9494919E5,5.68572E5,1.5974292E5,3.732326E4,-4.558562E4,-1.323475E4,-1.1445994E4,-3.2770883E4,-7.027863E3,1.4886784E4,-8.5612463E2,-2.0098188E4,-1.4774627E4,1.1788357E4,2.365197E4,5.2097133E4,-7.0508706E3,2.4531467E4,3.4244836E4,-1.1724409E4,-2.371244E3,2.2524594E4,4.3654465E4,6.6814805E4],"categories":[],"categories_nodes":[],"categories_segments":[],"categories_sizes":[],"default_left":[0,0,0,0,0,0,0,0,0,0,0,0,0,0,0,0,0,0,0,0,0,0,0,0,0,0,0,0,0,0,0,0,0,0,0,0,0,0,0,0,0,0,0,0,0,0,0,0,0,0,0],"id":11,"left_children":[1,3,5,7,9,11,13,15,17,19,21,23,25,27,29,-1,31,33,35,-1,-1,37,39,41,43,-1,45,47,49,-1,-1,-1,-1,-1,-1,-1,-1,-1,-1,-1,-1,-1,-1,-1,-1,-1,-1,-1,-1,-1,-1],"loss_changes":[4.9137936E13,5.6321387E12,1.0553494E13,7.5531446E11,1.4936027E12,5.6713103E12,2.4143966E12,5.3351547E9,6.8829997E11,1.6134386E11,1.3178915E12,2.5560138E12,1.7194801E12,8.482204E11,2.644991E11,0E0,8.692695E8,3.1827532E11,5.7135337E10,0E0,0E0,1.0087448E12,1.9851073E12,1.26191665E11,2.9318935E12,0E0,5.0175463E11,6.496374E10,8.126506E11,0E0,0E0,0E0,0E0,0E0,0E0,0E0,0E0,0E0,0E0,0E0,0E0,0E0,0E0,0E0,0E0,0E0,0E0,0E0,0E0,0E0,0E0],"parents":[2147483647,0,0,1,1,2,2,3,3,4,4,5,5,6,6,7,7,8,8,9,9,10,10,11,11,12,12,13,13,14,14,16,16,17,17,18,18,21,21,22,22,23,23,24,24,26,26,27,27,28,28],"right_children":[2,4,6,8,10,12,14,16,18,20,22,24,26,28,30,-1,32,34,36,-1,-1,38,40,42,44,-1,46,48,50,-1,-1,-1,-1,-1,-1,-1,-1,-1,-1,-1,-1,-1,-1,-1,-1,-1,-1,-1,-1,-1,-1],"split_conditions":[2.014E3,2.005E3,2.017E3,2E3,1E0,4.028169E-1,2.02E3,1E0,5.253521E-1,1E1,2.011E3,2E0,8E0,3E0,1E0,-1.8659988E4,7.9492956E-1,2E0,6E0,-6.0464176E4,-7.938681E3,2E0,3.1E1,2.015E3,3.3E1,7.5473695E4,5.253521E-1,1E0,1E1,1.5974292E5,3.732326E4,-4.558562E4,-1.323475E4,-1.1445994E4,-3.2770883E4,-7.027863E3,1.4886784E4,-8.5612463E2,-2.0098188E4,-1.4774627E4,1.1788357E4,2.365197E4,5.2097133E4,-7.0508706E3,2.4531467E4,3.4244836E4,-1.1724409E4,-2.371244E3,2.2524594E4,4.3654465E4,6.6814805E4],"split_indices":[7,7,7,7,0,9,7,5,9,5,7,6,5,5,5,0,9,6,5,0,0,6,6,7,6,0,9,0,6,0,0,0,0,0,0,0,0,0,0,0,0,0,0,0,0,0,0,0,0,0,0],"split_type":[0,0,0,0,0,0,0,0,0,0,0,0,0,0,0,0,0,0,0,0,0,0,0,0,0,0,0,0,0,0,0,0,0,0,0,0,0,0,0,0,0,0,0,0,0,0,0,0,0,0,0],"sum_hessian":[7.92E2,4.63E2,3.29E2,1.73E2,2.9E2,2.35E2,9.4E1,5.8E1,1.15E2,7E0,2.83E2,1.53E2,8.2E1,9.1E1,3E0,2E0,5.6E1,1.11E2,4E0,6E0,1E0,1.72E2,1.11E2,1.5E1,1.38E2,1.1E1,7.1E1,8E0,8.3E1,2E0,1E0,5.5E1,1E0,9E0,1.02E2,1E0,3E0,3.4E1,1.38E2,5.9E1,5.2E1,5E0,1E1,9.7E1,4.1E1,6.9E1,2E0,1E0,7E0,3.8E1,4.5E1],"tree_param":{"num_deleted":"0","num_feature":"11","num_nodes":"51","size_leaf_vector":"1"}},{"base_weights":[2.9281382E3,1.4221272E5,-1.8402588E5,2.532645E5,1.2592337E4,-7.808177E4,-2.3806825E5,4.944418E5,1.9503034E5,-7.357318E4,2.4115953E5,-3.6588944E5,-5.337482E4,-2.6962447E5,-6.578506E4,9.463688E5,4.1810838E5,1.13789195E5,3.7271175E5,-3.6088294E5,-2.2954258E4,9.165902E4,5.0020047E5,-4.1429348E4,-1.3098358E4,-2.0690756E5,-3.202794E4,-4.061109E4,-2.4921242E5,4.5617395E4,-1.2338701E5,1.4909339E5,3.0135287E4,4.422293E4,-2.8542441E4,5.273601E2,1.9008693E4,-1.2450804E4,4.0010445E4,-8.266807E3,-3.6977145E4,-2.1700615E4,5.207568E3,3.1850088E4,2.0551162E3,5.5293344E4,1.3785203E4,-1.4370616E4,-3.131842E4,-5.885283E3,1.1675001E4,-2.117122E4,-3.1255928E4,-8.222273E1,2.0069021E4,-1.4824391E4,3.7958438E3],"categories":[],"categories_nodes":[],"categories_segments":[],"categories_sizes":[],"default_left":[0,0,0,0,0,0,0,0,0,0,0,0,0,0,0,0,0,0,0,0,0,0,0,0,0,0,0,0,0,0,0,0,0,0,0,0,0,0,0,0,0,0,0,0,0,0,0,0,0,0,0,0,0,0,0,0,0],"id":12,"left_children":[1,3,5,7,9,11,13,15,17,19,21,23,25,27,29,31,33,35,37,39,41,43,45,-1,-1,47,49,-1,51,53,55,-1,-1,-1,-1,-1,-1,-1,-1,-1,-1,-1,-1,-1,-1,-1,-1,-1,-1,-1,-1,-1,-1,-1,-1,-1,-1],"loss_changes":[2.0675742E13,6.546343E12,1.922346E12,3.3445338E12,4.1733055E12,8.053293E11,1.2000627E12,1.2256815E12,2.8301622E12,2.231386E12,2.2003033E12,4.8067903E10,3.4733723E11,4.2534017E11,2.3664055E11,1.6582212E12,8.3895674E11,1.1415675E12,8.94267E11,2.630851E10,1.9331813E12,6.0640356E11,3.2503916E11,0E0,0E0,4.231227E10,3.900025E11,0E0,3.3053947E11,9.378482E10,1.0188023E11,0E0,0E0,0E0,0E0,0E0,0E0,0E0,0E0,0E0,0E0,0E0,0E0,0E0,0E0,0E0,0E0,0E0,0E0,0E0,0E0,0E0,0E0,0E0,0E0,0E0,0E0],"parents":[2147483647,0,0,1,1,2,2,3,3,4,4,5,5,6,6,7,7,8,8,9,9,10,10,11,11,12,12,13,13,14,14,15,15,16,16,17,17,18,18,19,19,20,20,21,21,22,22,25,25,26,26,28,28,29,29,30,30],"right_children":[2,4,6,8,10,12,14,16,18,20,22,24,26,28,30,32,34,36,38,40,42,44,46,-1,-1,48,50,-1,52,54,56,-1,-1,-1,-1,-1,-1,-1,-1,-1,-1,-1,-1,-1,-1,-1,-1,-1,-1,-1,-1,-1,-1,-1,-1,-1,-1],"split_conditions":[1E0,3.5658926E-1,4.9262467E-1,1.6840449E-1,1E0,3.5211268E-1,5.2E-1,1E0,4.028169E-1,3.774648E-1,4.028169E-1,4.21298E-1,3.0967543E-1,3.7915492E-1,5.735106E-1,2.2589233E-2,5.253521E-1,1E0,2E0,1.4366198E-1,1E1,7E0,6.339177E-1,-4.1429348E4,-1.3098358E4,2.8232127E-1,4.9295774E-1,-4.061109E4,6.5182287E-1,5.522155E-1,5.253521E-1,1.4909339E5,3.0135287E4,4.422293E4,-2.8542441E4,5.273601E2,1.9008693E4,-1.2450804E4,4.0010445E4,-8.266807E3,-3.6977145E4,-2.1700615E4,5.207568E3,3.1850088E4,2.0551162E3,5.5293344E4,1.3785203E4,-1.4370616E4,-3.131842E4,-5.885283E3,1.1675001E4,-2.117122E4,-3.1255928E4,-8.222273E1,2.0069021E4,-1.4824391E4,3.7958438E3],"split_indices":[1,10,10,10,2,9,9,5,9,9,9,10,10,9,10,10,9,4,5,9,5,5,10,0,0,10,9,0,10,10,9,0,0,0,0,0,0,0,0,0,0,0,0,0,0,0,0,0,0,0,0,0,0,0,0,0,0],"split_type":[0,0,0,0,0,0,0,0,0,0,0,0,0,0,0,0,0,0,0,0,0,0,0,0,0,0,0,0,0,0,0,0,0,0,0,0,0,0,0,0,0,0,0,0,0,0,0,0,0,0,0,0,0,0,0,0,0],"sum_hessian":[7.92E2,4.54E2,3.38E2,2.44E2,2.1E2,1.15E2,2.23E2,4.6E1,1.98E2,1.53E2,5.7E1,8E0,1.07E2,1.88E2,3.5E1,5E0,4.1E1,1.37E2,6.1E1,2.2E1,1.31E2,3.7E1,2E1,6E0,2E0,1.2E1,9.5E1,2.2E1,1.66E2,1.2E1,2.3E1,2E0,3E0,4E1,1E0,5.7E1,8E1,3E0,5.8E1,1E0,2.1E1,3.6E1,9.5E1,8E0,2.9E1,1.7E1,3E0,9E0,3E0,8.1E1,1.4E1,1.07E2,5.9E1,1E1,2E0,2E1,3E0],"tree_param":{"num_deleted":"0","num_feature":"11","num_nodes":"57","size_leaf_vector":"1"}},{"base_weights":[2.767395E3,-3.349585E5,3.0370646E4,-5.027597E4,-2.994745E5,-3.593284E4,1.513852E5,-1.0575267E4,-3.051083E5,-1.4360234E5,1.9830845E5,-3.6904447E5,1.7367858E5,-3.9113293E4,-2.7668503E5,-1.6710917E5,-2.97349E4,3.4618047E4,4.5735844E5,-4.5412147E5,-1.06629375E5,1.8409573E5,-1.25724875E5,-3.1280625E4,-1.9322117E4,-2.7840984E4,-1.2826336E4,1.7543738E4,-4.43822E3,1.5789569E4,-1.8206077E3,5.0327816E4,1.0745026E4,-1.16765E3,-5.156598E4,-2.32783E4,1.3591575E4,-1.4102555E3,1.9725467E4,-2.2943395E4,-8.4082E3],"categories":[],"categories_nodes":[],"categories_segments":[],"categories_sizes":[],"default_left":[0,0,0,0,0,0,0,0,0,0,0,0,0,0,0,0,0,0,0,0,0,0,0,0,0,0,0,0,0,0,0,0,0,0,0,0,0,0,0,0,0],"id":13,"left_children":[1,3,5,-1,7,9,11,-1,13,15,17,19,21,-1,23,25,27,29,31,33,35,37,39,-1,-1,-1,-1,-1,-1,-1,-1,-1,-1,-1,-1,-1,-1,-1,-1,-1,-1],"loss_changes":[7.402783E12,2.0669163E11,5.8948264E12,0E0,2.4486347E10,1.2008284E13,3.0806487E12,0E0,1.4034665E10,8.676227E11,6.3447667E12,1.9715758E11,8.028789E11,0E0,6.3166743E10,1.1316531E12,1.7908384E11,6.0849376E11,8.7784895E11,2.1179754E11,1.5403065E11,6.339371E11,1.9577422E10,0E0,0E0,0E0,0E0,0E0,0E0,0E0,0E0,0E0,0E0,0E0,0E0,0E0,0E0,0E0,0E0,0E0,0E0],"parents":[2147483647,0,0,1,1,2,2,4,4,5,5,6,6,8,8,9,9,10,10,11,11,12,12,14,14,15,15,16,16,17,17,18,18,19,19,20,20,21,21,22,22],"right_children":[2,4,6,-1,8,10,12,-1,14,16,18,20,22,-1,24,26,28,30,32,34,36,38,40,-1,-1,-1,-1,-1,-1,-1,-1,-1,-1,-1,-1,-1,-1,-1,-1,-1,-1],"split_conditions":[3.7915492E-1,1E0,1E0,-5.027597E4,1.4366198E-1,1E0,1E0,-1.0575267E4,2.5661972E-1,5.2E-1,4.028169E-1,1E1,6.307042E-1,-3.9113293E4,1E0,7.5E-1,5.2112675E-1,7E0,1E0,3E0,7.9492956E-1,5E-1,6.3380283E-1,-3.1280625E4,-1.9322117E4,-2.7840984E4,-1.2826336E4,1.7543738E4,-4.43822E3,1.5789569E4,-1.8206077E3,5.0327816E4,1.0745026E4,-1.16765E3,-5.156598E4,-2.32783E4,1.3591575E4,-1.4102555E3,1.9725467E4,-2.2943395E4,-8.4082E3],"split_indices":[9,0,4,0,9,2,0,0,9,9,9,5,9,0,4,8,9,5,8,5,9,8,9,0,0,0,0,0,0,0,0,0,0,0,0,0,0,0,0,0,0],"split_type":[0,0,0,0,0,0,0,0,0,0,0,0,0,0,0,0,0,0,0,0,0,0,0,0,0,0,0,0,0,0,0,0,0,0,0,0,0,0,0,0,0],"sum_hessian":[7.92E2,5.9E1,7.33E2,8E0,5.1E1,4.74E2,2.59E2,2E0,4.9E1,3.25E2,1.49E2,1E1,2.49E2,9E0,4E1,2.69E2,5.6E1,9.2E1,5.7E1,7E0,3E0,2.41E2,8E0,2.6E1,1.4E1,6.8E1,2.01E2,3E0,5.3E1,2.7E1,6.5E1,5E1,7E0,1E0,6E0,2E0,1E0,1.5E1,2.26E2,1E0,7E0],"tree_param":{"num_deleted":"0","num_feature":"11","num_nodes":"41","size_leaf_vector":"1"}},{"base_weights":[2.2655103E3,-1.2303865E5,3.1331766E5,-2.5907698E5,-3.9597508E4,2.5135161E5,6.4783456E5,-3.5926266E4,-2.197774E5,-4.8601926E4,-3.0451408E4,2.1846002E5,6.586394E4,5.591829E5,1.1950892E6,-3.6780662E5,-1.9917525E5,-7.822334E4,4.7589625E4,1.6122328E5,3.3706166E5,3.6582575E5,6.5690586E4,1.378388E5,3.2259676E4,-3.847643E4,-3.9763313E3,-2.2996936E4,-1.7174953E4,-5.0900615E3,-2.221796E4,-5.641902E3,1.2496993E4,1.1118203E4,2.7588291E4,1.2354213E4,3.5932273E4,7.1495503E3,3.843953E4],"categories":[],"categories_nodes":[],"categories_segments":[],"categories_sizes":[],"default_left":[0,0,0,0,0,0,0,0,0,0,0,0,0,0,0,0,0,0,0,0,0,0,0,0,0,0,0,0,0,0,0,0,0,0,0,0,0,0,0],"id":14,"left_children":[1,3,5,7,9,11,13,-1,15,-1,17,19,-1,21,23,25,27,29,31,33,35,37,-1,-1,-1,-1,-1,-1,-1,-1,-1,-1,-1,-1,-1,-1,-1,-1,-1],"loss_changes":[3.0946615E13,6.4145174E12,4.5633063E12,7.675524E11,1.4224219E12,2.4550058E12,1.029753E12,0E0,4.055483E11,0E0,1.2936698E12,1.1743527E12,0E0,3.643403E11,1.95043E11,8.483163E10,7.8739145E10,8.343456E11,1.0694158E12,6.808032E11,2.3129227E11,4.3570037E10,0E0,0E0,0E0,0E0,0E0,0E0,0E0,0E0,0E0,0E0,0E0,0E0,0E0,0E0,0E0,0E0,0E0],"parents":[2147483647,0,0,1,1,2,2,3,3,4,4,5,5,6,6,8,8,10,10,11,11,13,13,14,14,15,15,16,16,17,17,18,18,19,19,20,20,21,21],"right_children":[2,4,6,8,10,12,14,-1,16,-1,18,20,-1,22,24,26,28,30,32,34,36,38,-1,-1,-1,-1,-1,-1,-1,-1,-1,-1,-1,-1,-1,-1,-1,-1,-1],"split_conditions":[2.016E3,2.006E3,2.018E3,2E3,1E0,5.6E1,2.02E3,-3.5926266E4,9E0,-4.8601926E4,2.013E3,2.017E3,6.586394E4,2.2E1,1E0,5.8E1,2.4E1,3.8E1,8E0,2.7E1,3E0,1E0,6.5690586E4,1.378388E5,3.2259676E4,-3.847643E4,-3.9763313E3,-2.2996936E4,-1.7174953E4,-5.0900615E3,-2.221796E4,-5.641902E3,1.2496993E4,1.1118203E4,2.7588291E4,1.2354213E4,3.5932273E4,7.1495503E3,3.843953E4],"split_indices":[7,7,7,7,0,6,7,0,5,0,7,7,0,6,5,6,6,6,6,6,5,5,0,0,0,0,0,0,0,0,0,0,0,0,0,0,0,0,0],"split_type":[0,0,0,0,0,0,0,0,0,0,0,0,0,0,0,0,0,0,0,0,0,0,0,0,0,0,0,0,0,0,0,0,0,0,0,0,0,0,0],"sum_hessian":[7.92E2,5.65E2,2.27E2,2.14E2,3.51E2,1.93E2,3.4E1,5.8E1,1.56E2,6E0,3.45E2,1.8E2,1.3E1,3.1E1,3E0,1.7E1,1.39E2,2.14E2,1.31E2,1.23E2,5.7E1,1.2E1,1.9E1,2E0,1E0,1.6E1,1E0,6.2E1,7.7E1,1.81E2,3.3E1,5.6E1,7.5E1,8.7E1,3.6E1,6E0,5.1E1,1E0,1.1E1],"tree_param":{"num_deleted":"0","num_feature":"11","num_nodes":"39","size_leaf_vector":"1"}},{"base_weights":[2.3499487E3,-1.11066266E5,2.838904E5,-2.3372069E5,-3.583397E4,2.2700436E5,5.910905E5,-3.0572538E5,-1.8878661E5,-6.3385414E4,1.17383E5,1.948289E5,5.727795E5,5.0674212E5,1.118105E6,-3.221668E5,-8.589221E4,-2.2001312E5,-1.2760493E5,9.294469E4,-9.365151E4,1.4075144E5,-3.2679756E4,1.3046946E5,2.8866212E5,3.0697889E4,6.6569086E4,3.3275006E5,5.944999E4,1.2864954E5,3.0646688E4,-5.174931E3,-3.2512178E4,-1.9170723E4,1.19096875E4,-1.6242073E4,-3.2594441E4,-1.5967213E4,5.2690093E3,-2.6005725E4,1.3010169E4,-1.701185E4,1.9718109E3,5.823354E2,1.768096E4,9.373711E2,2.469913E4,2.1265139E4,3.4415445E4,3.491591E4,6.792075E3],"categories":[],"categories_nodes":[],"categories_segments":[],"categories_sizes":[],"default_left":[0,0,0,0,0,0,0,0,0,0,0,0,0,0,0,0,0,0,0,0,0,0,0,0,0,0,0,0,0,0,0,0,0,0,0,0,0,0,0,0,0,0,0,0,0,0,0,0,0,0,0],"id":15,"left_children":[1,3,5,7,9,11,13,15,17,19,21,23,25,27,29,31,33,35,37,39,41,43,-1,45,47,-1,-1,49,-1,-1,-1,-1,-1,-1,-1,-1,-1,-1,-1,-1,-1,-1,-1,-1,-1,-1,-1,-1,-1,-1,-1],"loss_changes":[2.5353016E13,5.214432E12,3.8502117E12,6.3790855E11,1.4933551E12,2.046747E12,9.89257E11,2.6509207E11,2.2984157E11,1.4234234E12,6.0650665E11,1.04332945E12,1.9078106E11,2.9079372E11,1.5241996E11,4.310696E10,1.746682E11,4.8393355E11,2.8592787E11,6.76542E11,2.1792817E12,2.5196403E11,0E0,1.5215972E12,2.305116E11,0E0,0E0,3.2777568E10,0E0,0E0,0E0,0E0,0E0,0E0,0E0,0E0,0E0,0E0,0E0,0E0,0E0,0E0,0E0,0E0,0E0,0E0,0E0,0E0,0E0,0E0,0E0],"parents":[2147483647,0,0,1,1,2,2,3,3,4,4,5,5,6,6,7,7,8,8,9,9,10,10,11,11,12,12,13,13,14,14,15,15,16,16,17,17,18,18,19,19,20,20,21,21,23,23,24,24,27,27],"right_children":[2,4,6,8,10,12,14,16,18,20,22,24,26,28,30,32,34,36,38,40,42,44,-1,46,48,-1,-1,50,-1,-1,-1,-1,-1,-1,-1,-1,-1,-1,-1,-1,-1,-1,-1,-1,-1,-1,-1,-1,-1,-1,-1],"split_conditions":[2.016E3,2.006E3,2.018E3,2.002E3,4.9295774E-1,4.5E1,2.02E3,5.253521E-1,4.028169E-1,2E0,6.619718E-1,4.028169E-1,2.8738767E-1,2.2E1,1.1E1,2E0,2E3,3.8E1,3.8E1,1E0,3.7E1,3.3313236E-1,-3.2679756E4,1E0,2.9408652E-1,3.0697889E4,6.6569086E4,1E1,5.944999E4,1.2864954E5,3.0646688E4,-5.174931E3,-3.2512178E4,-1.9170723E4,1.19096875E4,-1.6242073E4,-3.2594441E4,-1.5967213E4,5.2690093E3,-2.6005725E4,1.3010169E4,-1.701185E4,1.9718109E3,5.823354E2,1.768096E4,9.373711E2,2.469913E4,2.1265139E4,3.4415445E4,3.491591E4,6.792075E3],"split_indices":[7,7,7,7,9,6,7,9,9,6,9,9,10,6,6,6,7,6,6,6,6,10,0,4,10,0,0,6,0,0,0,0,0,0,0,0,0,0,0,0,0,0,0,0,0,0,0,0,0,0,0],"split_type":[0,0,0,0,0,0,0,0,0,0,0,0,0,0,0,0,0,0,0,0,0,0,0,0,0,0,0,0,0,0,0,0,0,0,0,0,0,0,0,0,0,0,0,0,0,0,0,0,0,0,0],"sum_hessian":[7.92E2,5.65E2,2.27E2,2.14E2,3.51E2,1.93E2,3.4E1,8E1,1.34E2,2.98E2,5.3E1,1.78E2,1.5E1,3.1E1,3E0,7.4E1,6E0,8.7E1,4.7E1,4.8E1,2.5E2,5.1E1,2E0,1.07E2,7.1E1,5E0,1E1,1.2E1,1.9E1,2E0,1E0,1E0,7.3E1,4E0,2E0,5.8E1,2.9E1,4E1,7E0,4E0,4.4E1,1.49E2,1.01E2,1.1E1,4E1,5.3E1,5.4E1,3.2E1,3.9E1,1.1E1,1E0],"tree_param":{"num_deleted":"0","num_feature":"11","num_nodes":"51","size_leaf_vector":"1"}},{"base_weights":[2.4833103E3,-1.3417789E5,1.9462972E5,-2.2708133E5,-7.816629E4,1.14962266E5,3.904917E5,-3.3186277E4,-2.0383633E5,-2.567906E5,-5.817286E4,5.3643688E4,2.3386294E5,3.5774172E5,1.0461185E6,-4.7394938E4,-2.1384058E5,-3.0918744E5,1.4798656E4,-9.991019E4,8.686154E3,3.6788306E5,1.785866E4,3.9357034E5,1.5411283E5,2.7165866E5,4.416138E5,1.200729E5,2.911435E4,-1.1267844E4,-3.319375E2,-2.534131E4,-1.7514537E4,-1.8238426E4,-3.900175E4,1.3613663E3,-1.3130349E4,-9.268312E3,1.2022195E4,2.0008725E4,4.2596418E4,-9.498081E3,9.92142E3,2.0727098E4,5.6392582E4,2.4360402E4,-4.020984E4,2.9329537E4,1.268131E4,6.311732E4,3.6172188E4],"categories":[],"categories_nodes":[],"categories_segments":[],"categories_sizes":[],"default_left":[0,0,0,0,0,0,0,0,0,0,0,0,0,0,0,0,0,0,0,0,0,0,0,0,0,0,0,0,0,0,0,0,0,0,0,0,0,0,0,0,0,0,0,0,0,0,0,0,0,0,0],"id":16,"left_children":[1,3,5,7,9,11,13,-1,15,17,19,21,23,25,27,29,31,33,-1,35,37,39,41,43,45,47,49,-1,-1,-1,-1,-1,-1,-1,-1,-1,-1,-1,-1,-1,-1,-1,-1,-1,-1,-1,-1,-1,-1,-1,-1],"loss_changes":[2.0849468E13,2.3967527E12,5.1043694E12,3.5615723E11,1.0243135E12,1.7080881E12,1.665578E12,0E0,2.1680095E11,6.608181E11,7.347736E11,1.7589054E12,9.5828024E11,5.4426966E11,1.1732412E11,2.8400048E10,1.6386831E11,1.9535417E11,0E0,5.7913744E11,1.1643855E12,7.07022E10,1.3129997E12,7.0827953E11,2.8356331E12,1.13237295E11,4.53183E11,0E0,0E0,0E0,0E0,0E0,0E0,0E0,0E0,0E0,0E0,0E0,0E0,0E0,0E0,0E0,0E0,0E0,0E0,0E0,0E0,0E0,0E0,0E0,0E0],"parents":[2147483647,0,0,1,1,2,2,3,3,4,4,5,5,6,6,8,8,9,9,10,10,11,11,12,12,13,13,14,14,15,15,16,16,17,17,19,19,20,20,21,21,22,22,23,23,24,24,25,25,26,26],"right_children":[2,4,6,8,10,12,14,-1,16,18,20,22,24,26,28,30,32,34,-1,36,38,40,42,44,46,48,50,-1,-1,-1,-1,-1,-1,-1,-1,-1,-1,-1,-1,-1,-1,-1,-1,-1,-1,-1,-1,-1,-1,-1,-1],"split_conditions":[2.014E3,2.005E3,2.017E3,1.997E3,1E1,2.7E1,2.02E3,-3.3186277E4,2E0,5.5E1,2.011E3,2E0,8E0,2.4E1,1E0,2.003E3,2.4E1,2E0,1.4798656E4,6E0,3.1E1,2.015E3,1.4E1,1E0,3.9E1,1.9E1,1E0,1.200729E5,2.911435E4,-1.1267844E4,-3.319375E2,-2.534131E4,-1.7514537E4,-1.8238426E4,-3.900175E4,1.3613663E3,-1.3130349E4,-9.268312E3,1.2022195E4,2.0008725E4,4.2596418E4,-9.498081E3,9.92142E3,2.0727098E4,5.6392582E4,2.4360402E4,-4.020984E4,2.9329537E4,1.268131E4,6.311732E4,3.6172188E4],"split_indices":[7,7,7,7,5,6,7,0,6,6,7,6,5,6,5,7,6,5,0,6,6,7,6,5,6,6,4,0,0,0,0,0,0,0,0,0,0,0,0,0,0,0,0,0,0,0,0,0,0,0,0],"split_type":[0,0,0,0,0,0,0,0,0,0,0,0,0,0,0,0,0,0,0,0,0,0,0,0,0,0,0,0,0,0,0,0,0,0,0,0,0,0,0,0,0,0,0,0,0,0,0,0,0,0,0],"sum_hessian":[7.92E2,4.63E2,3.29E2,1.73E2,2.9E2,2.35E2,9.4E1,2.9E1,1.44E2,2.8E1,2.62E2,1.56E2,7.9E1,9.1E1,3E0,9E0,1.35E2,2.5E1,3E0,1.61E2,1.01E2,1.5E1,1.41E2,2.5E1,5.4E1,4.7E1,4.4E1,2E0,1E0,3E0,6E0,6.4E1,7.1E1,1.1E1,1.4E1,3.5E1,1.26E2,5.3E1,4.8E1,5E0,1E1,5.9E1,8.2E1,1.3E1,1.2E1,4.7E1,7E0,4E1,7E0,1.1E1,3.3E1],"tree_param":{"num_deleted":"0","num_feature":"11","num_nodes":"51","size_leaf_vector":"1"}},{"base_weights":[2.582624E3,8.702571E4,-1.1076306E5,3.2344497E5,5.8348637E4,-8.917334E4,-2.655085E5,6.0443444E5,2.701805E5,3.812572E4,3.794841E5,-1.2445904E5,1.29704836E5,-2.8287512E5,-8.3893625E4,1.18243914E5,7.752619E5,1.4822103E5,4.1643347E5,6.344029E4,-1.24718055E5,4.6074887E4,-1.4202708E4,3.5358484E4,-1.5748395E5,1.7013916E5,2.864091E2,-1.9352003E5,-3.0085172E5,-1.7411876E2,-1.0399644E4,3.304225E3,1.4432362E4,1.1206804E5,1.7142283E4,2.001506E4,-9.952735E3,4.3349754E4,5.464025E3,2.57903E3,2.1536084E4,-1.6890838E4,1.8349236E4,1.5070008E4,-4.0052488E3,-2.1395459E4,-7.0946772E3,2.006852E4,1.1653102E4,3.916698E3,-5.4203677E3,-2.231768E4,-5.981421E3,-3.1247357E4,-1.5009675E4],"categories":[],"categories_nodes":[],"categories_segments":[],"categories_sizes":[],"default_left":[0,0,0,0,0,0,0,0,0,0,0,0,0,0,0,0,0,0,0,0,0,0,0,0,0,0,0,0,0,0,0,0,0,0,0,0,0,0,0,0,0,0,0,0,0,0,0,0,0,0,0,0,0,0,0],"id":17,"left_children":[1,3,5,7,9,11,13,15,17,19,21,23,25,27,29,31,33,35,37,39,41,-1,-1,43,45,47,49,51,53,-1,-1,-1,-1,-1,-1,-1,-1,-1,-1,-1,-1,-1,-1,-1,-1,-1,-1,-1,-1,-1,-1,-1,-1,-1,-1],"loss_changes":[7.599648E12,3.065942E12,1.1088927E12,5.7006463E11,2.6287103E12,2.3254003E12,1.05584E11,4.8971278E11,7.052641E11,1.590883E12,1.0825706E12,1.3672812E12,2.1973493E11,1.212416E9,8.0763945E9,1.8973286E9,8.507758E11,3.4155702E11,9.3613195E10,1.8991418E12,7.3922904E11,0E0,0E0,3.9744694E11,1.03059816E12,2.9014491E10,2.5427657E10,2.2338404E10,3.908305E9,0E0,0E0,0E0,0E0,0E0,0E0,0E0,0E0,0E0,0E0,0E0,0E0,0E0,0E0,0E0,0E0,0E0,0E0,0E0,0E0,0E0,0E0,0E0,0E0,0E0,0E0],"parents":[2147483647,0,0,1,1,2,2,3,3,4,4,5,5,6,6,7,7,8,8,9,9,10,10,11,11,12,12,13,13,14,14,15,15,16,16,17,17,18,18,19,19,20,20,23,23,24,24,25,25,26,26,27,27,28,28],"right_children":[2,4,6,8,10,12,14,16,18,20,22,24,26,28,30,32,34,36,38,40,42,-1,-1,44,46,48,50,52,54,-1,-1,-1,-1,-1,-1,-1,-1,-1,-1,-1,-1,-1,-1,-1,-1,-1,-1,-1,-1,-1,-1,-1,-1,-1,-1],"split_conditions":[1E0,1.6908099E-1,3.8E1,2.2589233E-2,5.7E1,3.5E1,5.8E1,2E0,2.7E1,3.9E1,6E1,2E0,5.735106E-1,4.8018295E-1,5.9E1,1E0,1.1E1,2.2E1,1.6840449E-1,3.7E1,1E0,4.6074887E4,-1.4202708E4,4.9262467E-1,2.1E1,4.5806432E-1,6.0846066E-1,4.7659457E-1,7.194435E-1,-1.7411876E2,-1.0399644E4,3.304225E3,1.4432362E4,1.1206804E5,1.7142283E4,2.001506E4,-9.952735E3,4.3349754E4,5.464025E3,2.57903E3,2.1536084E4,-1.6890838E4,1.8349236E4,1.5070008E4,-4.0052488E3,-2.1395459E4,-7.0946772E3,2.006852E4,1.1653102E4,3.916698E3,-5.4203677E3,-2.231768E4,-5.981421E3,-3.1247357E4,-1.5009675E4],"split_indices":[1,10,6,10,6,6,6,6,6,6,6,6,10,10,6,6,6,6,10,6,2,0,0,10,6,10,10,10,10,0,0,0,0,0,0,0,0,0,0,0,0,0,0,0,0,0,0,0,0,0,0,0,0,0,0],"split_type":[0,0,0,0,0,0,0,0,0,0,0,0,0,0,0,0,0,0,0,0,0,0,0,0,0,0,0,0,0,0,0,0,0,0,0,0,0,0,0,0,0,0,0,0,0,0,0,0,0,0,0,0,0,0,0],"sum_hessian":[7.92E2,4.54E2,3.38E2,4.8E1,4.06E2,2.98E2,4E1,6E0,4.2E1,3.83E2,2.3E1,2.57E2,4.1E1,3.6E1,4E0,2E0,4E0,2.4E1,1.8E1,3.32E2,5.1E1,2E1,3E0,4.4E1,2.13E2,3.1E1,1E1,8E0,2.8E1,1E0,3E0,1E0,1E0,2E0,2E0,2E1,4E0,1.7E1,1E0,2.67E2,6.5E1,4.5E1,6E0,1.7E1,2.7E1,1.28E2,8.5E1,1.8E1,1.3E1,6E0,4E0,6E0,2E0,2.5E1,3E0],"tree_param":{"num_deleted":"0","num_feature":"11","num_nodes":"55","size_leaf_vector":"1"}},{"base_weights":[2.565144E3,-1.1404531E5,1.6651873E5,-1.7797189E5,-5.8612266E4,9.8279984E4,3.3428534E5,-2.4838119E5,-1.5037878E5,-2.2758898E5,-3.8825566E4,4.710676E4,1.9747892E5,3.0525188E5,9.184839E5,-2.8375396E4,-2.0472904E4,-2.8465597E5,-1.3204044E5,-2.7507128E5,1.0233138E4,-1.8011168E4,-2.0462031E5,3.2999575E5,1.490021E4,3.3743416E5,1.27727734E5,2.8136466E5,5.5511582E4,1.04596836E5,2.6801525E4,-1.6837111E4,-3.4334895E4,-1.5893632E4,-1.08624E4,-1.8761426E4,-4.156014E4,-6.078144E3,1.0897556E4,-2.3366637E4,2.462425E4,3.1390125E3,3.478101E4,-8.676032E3,8.821022E3,1.8774049E4,4.726863E4,2.052919E4,-3.536232E4,5.0743848E4,2.5806615E4],"categories":[],"categories_nodes":[],"categories_segments":[],"categories_sizes":[],"default_left":[0,0,0,0,0,0,0,0,0,0,0,0,0,0,0,0,0,0,0,0,0,0,0,0,0,0,0,0,0,0,0,0,0,0,0,0,0,0,0,0,0,0,0,0,0,0,0,0,0,0,0],"id":18,"left_children":[1,3,5,7,9,11,13,15,17,19,21,23,25,27,29,-1,-1,31,33,35,-1,37,39,41,43,45,47,49,-1,-1,-1,-1,-1,-1,-1,-1,-1,-1,-1,-1,-1,-1,-1,-1,-1,-1,-1,-1,-1,-1,-1],"loss_changes":[1.5180122E13,1.6338203E12,3.7450469E12,3.8035364E11,8.270366E11,1.1887111E12,1.3309554E12,3.300891E10,3.4901407E11,4.354482E11,7.72771E11,1.4254911E12,7.378638E11,3.9291716E11,5.1362922E10,0E0,0E0,6.5041727E10,7.090864E10,2.047051E11,0E0,1.09830636E12,3.8493323E11,7.419357E10,1.0659415E12,4.3766383E11,2.1260526E12,3.2202503E11,0E0,0E0,0E0,0E0,0E0,0E0,0E0,0E0,0E0,0E0,0E0,0E0,0E0,0E0,0E0,0E0,0E0,0E0,0E0,0E0,0E0,0E0,0E0],"parents":[2147483647,0,0,1,1,2,2,3,3,4,4,5,5,6,6,7,7,8,8,9,9,10,10,11,11,12,12,13,13,14,14,17,17,18,18,19,19,21,21,22,22,23,23,24,24,25,25,26,26,27,27],"right_children":[2,4,6,8,10,12,14,16,18,20,22,24,26,28,30,-1,-1,32,34,36,-1,38,40,42,44,46,48,50,-1,-1,-1,-1,-1,-1,-1,-1,-1,-1,-1,-1,-1,-1,-1,-1,-1,-1,-1,-1,-1,-1,-1],"split_conditions":[2.014E3,2.006E3,2.017E3,2E3,1E1,2.7E1,2.02E3,1.997E3,9E0,5.5E1,3.8E1,2E0,8E0,5.6E1,1E0,-2.8375396E4,-2.0472904E4,1E0,2.4E1,7E0,1.0233138E4,3.7E1,5.7E1,2E0,1.4E1,1E0,3.9E1,7.5E-1,5.5511582E4,1.04596836E5,2.6801525E4,-1.6837111E4,-3.4334895E4,-1.5893632E4,-1.08624E4,-1.8761426E4,-4.156014E4,-6.078144E3,1.0897556E4,-2.3366637E4,2.462425E4,3.1390125E3,3.478101E4,-8.676032E3,8.821022E3,1.8774049E4,4.726863E4,2.052919E4,-3.536232E4,5.0743848E4,2.5806615E4],"split_indices":[7,7,7,7,5,6,7,7,5,6,6,6,5,6,5,0,0,8,6,5,0,6,6,5,6,5,6,8,0,0,0,0,0,0,0,0,0,0,0,0,0,0,0,0,0,0,0,0,0,0,0],"split_type":[0,0,0,0,0,0,0,0,0,0,0,0,0,0,0,0,0,0,0,0,0,0,0,0,0,0,0,0,0,0,0,0,0,0,0,0,0,0,0,0,0,0,0,0,0,0,0,0,0,0,0],"sum_hessian":[7.92E2,4.63E2,3.29E2,2.14E2,2.49E2,2.35E2,9.4E1,5.8E1,1.56E2,2.5E1,2.24E2,1.56E2,7.9E1,9.1E1,3E0,2.9E1,2.9E1,1.7E1,1.39E2,2.2E1,3E0,2E2,2.4E1,1.5E1,1.41E2,2.5E1,5.4E1,8.5E1,6E0,2E0,1E0,7E0,1E1,6.2E1,7.7E1,1.5E1,7E0,1.5E2,5E1,2.3E1,1E0,1E0,1.4E1,5.9E1,8.2E1,1.3E1,1.2E1,4.7E1,7E0,6E0,7.9E1],"tree_param":{"num_deleted":"0","num_feature":"11","num_nodes":"51","size_leaf_vector":"1"}},{"base_weights":[2.538073E3,-7.7034055E4,2.0006125E5,-1.3812039E5,-4.0934077E3,1.5600911E5,4.3851997E5,-1.9370545E5,-1.0257964E5,-3.7081266E4,1.3803989E5,8.881235E4,2.4294756E5,3.721956E5,8.59485E5,-1.9990403E5,3.447972E4,-2.9469344E5,-8.797256E4,-1.5754816E5,3.3075781E3,1.5429567E5,-8.34115E4,-1.0346231E5,1.2228452E5,3.694664E5,2.1672962E5,9.750825E3,3.872578E4,9.76237E4,2.5461451E4,-2.605363E4,-1.776513E4,-6.709E3,9.069963E3,-7.4164E3,-3.0689057E4,-9.430663E3,1.0932175E4,-2.0950672E4,-2.4299805E3,1.2704859E4,-1.0464393E3,-1.3352167E3,1.750662E4,8.0700005E1,-1.680335E4,-4.54232E4,-2.6410894E3,1.3133971E4,-1.1655565E4,7.050275E4,2.443619E4,1.8436887E4,2.9729547E4],"categories":[],"categories_nodes":[],"categories_segments":[],"categories_sizes":[],"default_left":[0,0,0,0,0,0,0,0,0,0,0,0,0,0,0,0,0,0,0,0,0,0,0,0,0,0,0,0,0,0,0,0,0,0,0,0,0,0,0,0,0,0,0,0,0,0,0,0,0,0,0,0,0,0,0],"id":19,"left_children":[1,3,5,7,9,11,13,15,17,19,21,23,25,27,29,31,33,35,37,39,41,43,45,47,49,51,53,-1,-1,-1,-1,-1,-1,-1,-1,-1,-1,-1,-1,-1,-1,-1,-1,-1,-1,-1,-1,-1,-1,-1,-1,-1,-1,-1,-1],"loss_changes":[1.2479261E13,2.521348E12,2.3266391E12,5.8859454E11,1.2194851E12,1.1117679E12,6.573119E11,1.7520919E11,5.072569E11,1.02714547E12,1.8926338E11,7.2703135E11,1.985594E11,9.463608E10,3.3915404E10,1.1022631E11,2.8926001E10,1.2207522E10,2.3275202E11,3.618489E11,2.7229055E11,1.6251571E11,2.8642556E10,4.474675E11,2.2076876E11,3.7346096E11,1.32904124E11,0E0,0E0,0E0,0E0,0E0,0E0,0E0,0E0,0E0,0E0,0E0,0E0,0E0,0E0,0E0,0E0,0E0,0E0,0E0,0E0,0E0,0E0,0E0,0E0,0E0,0E0,0E0,0E0],"parents":[2147483647,0,0,1,1,2,2,3,3,4,4,5,5,6,6,7,7,8,8,9,9,10,10,11,11,12,12,13,13,14,14,15,15,16,16,17,17,18,18,19,19,20,20,21,21,22,22,23,23,24,24,25,25,26,26],"right_children":[2,4,6,8,10,12,14,16,18,20,22,24,26,28,30,32,34,36,38,40,42,44,46,48,50,52,54,-1,-1,-1,-1,-1,-1,-1,-1,-1,-1,-1,-1,-1,-1,-1,-1,-1,-1,-1,-1,-1,-1,-1,-1,-1,-1,-1,-1],"split_conditions":[2.016E3,2.01E3,2.018E3,2.004E3,4.028169E-1,4.028169E-1,2.02E3,7.9492956E-1,1E1,7.5E-1,5.253521E-1,7.5E-1,7E0,1E0,1E0,1.997E3,1.996E3,5E-1,5.253521E-1,1E0,1E0,2E0,6.619718E-1,1E0,1E0,1E0,2.017E3,9.750825E3,3.872578E4,9.76237E4,2.5461451E4,-2.605363E4,-1.776513E4,-6.709E3,9.069963E3,-7.4164E3,-3.0689057E4,-9.430663E3,1.0932175E4,-2.0950672E4,-2.4299805E3,1.2704859E4,-1.0464393E3,-1.3352167E3,1.750662E4,8.0700005E1,-1.680335E4,-4.54232E4,-2.6410894E3,1.3133971E4,-1.1655565E4,7.050275E4,2.443619E4,1.8436887E4,2.9729547E4],"split_indices":[7,7,7,7,9,9,7,9,5,8,9,8,5,5,5,7,7,8,9,2,5,5,9,2,1,2,7,0,0,0,0,0,0,0,0,0,0,0,0,0,0,0,0,0,0,0,0,0,0,0,0,0,0,0,0],"split_type":[0,0,0,0,0,0,0,0,0,0,0,0,0,0,0,0,0,0,0,0,0,0,0,0,0,0,0,0,0,0,0,0,0,0,0,0,0,0,0,0,0,0,0,0,0,0,0,0,0,0,0,0,0,0,0],"sum_hessian":[7.92E2,5.65E2,2.27E2,3.07E2,2.58E2,1.93E2,3.4E1,1.18E2,1.89E2,2.1E2,4.8E1,1.1E2,8.3E1,3.1E1,3E0,1.15E2,3E0,1.2E1,1.77E2,5.2E1,1.58E2,4.5E1,3E0,1.6E1,9.4E1,1.2E1,7.1E1,2E0,2.9E1,2E0,1E0,2.8E1,8.7E1,1E0,2E0,1E0,1.1E1,1.72E2,5E0,3.7E1,1.5E1,1.5E1,1.43E2,5E0,4E1,2E0,1E0,2E0,1.4E1,9.1E1,3E0,2E0,1E1,5.3E1,1.8E1],"tree_param":{"num_deleted":"0","num_feature":"11","num_nodes":"55","size_leaf_vector":"1"}},{"base_weights":[2.5084067E3,-3.2933824E4,9.496901E4,1.0298321E5,-5.7756215E4,4.118869E4,2.4447284E5,-2.2757092E5,1.2121601E5,-1.2174833E5,3.7547156E4,2.1623594E4,3.383723E5,2.0825327E5,3.265334E5,-7.2969414E3,-3.0631547E4,6.857086E4,1.8452523E4,1.0875856E5,-1.5064786E5,1.805214E5,-1.5523423E5,-7.696131E4,4.4142156E4,8.492375E2,3.7408207E4,2.41966E5,7.280465E3,-2.300619E3,3.513698E4,5.466277E3,3.6112562E4,6.794658E4,-1.7420067E3,-1.8622766E4,-3.4592283E3,1.207135E4,2.2128291E4,1.6311534E4,-2.2123438E4,-1.1706272E4,6.5794946E3,-1.798486E4,5.8829414E3,1.7650508E4,2.8435594E4],"categories":[],"categories_nodes":[],"categories_segments":[],"categories_sizes":[],"default_left":[0,0,0,0,0,0,0,0,0,0,0,0,0,0,0,0,0,0,0,0,0,0,0,0,0,0,0,0,0,0,0,0,0,0,0,0,0,0,0,0,0,0,0,0,0,0,0],"id":20,"left_children":[1,3,5,7,9,11,13,15,17,19,21,23,25,27,29,-1,-1,31,-1,33,35,37,39,41,43,-1,-1,45,-1,-1,-1,-1,-1,-1,-1,-1,-1,-1,-1,-1,-1,-1,-1,-1,-1,-1,-1],"loss_changes":[2.6017965E12,1.9425012E12,1.7588105E12,5.6398145E11,2.9685223E12,9.4043465E11,1.04386265E11,3.8518473E10,2.7064546E11,1.9548933E12,5.430327E12,3.4527576E11,1.1462246E11,1.7873633E11,1.469844E11,0E0,0E0,1.7556605E11,0E0,2.388201E12,1.0630296E12,2.4876627E11,1.8010206E12,1.7371922E11,4.2509645E11,0E0,0E0,4.4155798E10,0E0,0E0,0E0,0E0,0E0,0E0,0E0,0E0,0E0,0E0,0E0,0E0,0E0,0E0,0E0,0E0,0E0,0E0,0E0],"parents":[2147483647,0,0,1,1,2,2,3,3,4,4,5,5,6,6,7,7,8,8,9,9,10,10,11,11,12,12,13,13,14,14,17,17,19,19,20,20,21,21,22,22,23,23,24,24,27,27],"right_children":[2,4,6,8,10,12,14,16,18,20,22,24,26,28,30,-1,-1,32,-1,34,36,38,40,42,44,-1,-1,46,-1,-1,-1,-1,-1,-1,-1,-1,-1,-1,-1,-1,-1,-1,-1,-1,-1,-1,-1],"split_conditions":[4.6478873E-1,2E0,1E0,2E0,3.7E1,5.5E1,4.9295774E-1,3.774648E-1,1E0,5E0,3.8E1,5.2E-1,1E0,3.3E1,8E0,-7.2969414E3,-3.0631547E4,1E0,1.8452523E4,1.1E1,1E0,1E0,1E0,1E0,1E0,8.492375E2,3.7408207E4,1E1,7.280465E3,-2.300619E3,3.513698E4,5.466277E3,3.6112562E4,6.794658E4,-1.7420067E3,-1.8622766E4,-3.4592283E3,1.207135E4,2.2128291E4,1.6311534E4,-2.2123438E4,-1.1706272E4,6.5794946E3,-1.798486E4,5.8829414E3,1.7650508E4,2.8435594E4],"split_indices":[9,6,2,5,6,6,9,9,4,5,6,9,4,6,6,0,0,2,0,6,2,4,5,4,0,0,0,6,0,0,0,0,0,0,0,0,0,0,0,0,0,0,0,0,0,0,0],"split_type":[0,0,0,0,0,0,0,0,0,0,0,0,0,0,0,0,0,0,0,0,0,0,0,0,0,0,0,0,0,0,0,0,0,0,0,0,0,0,0,0,0,0,0,0,0,0,0],"sum_hessian":[7.92E2,5.73E2,2.19E2,8.8E1,4.85E2,1.62E2,5.7E1,4E0,8.4E1,2.9E2,1.95E2,1.53E2,9E0,4.2E1,1.5E1,2E0,2E0,4.7E1,3.7E1,3.2E1,2.58E2,1.12E2,8.3E1,2.8E1,1.25E2,1E0,8E0,3.3E1,9E0,1E0,1.4E1,4.6E1,1E0,5E0,2.7E1,1.97E2,6.1E1,4.7E1,6.5E1,1.4E1,6.9E1,2.2E1,6E0,7E0,1.18E2,1.5E1,1.8E1],"tree_param":{"num_deleted":"0","num_feature":"11","num_nodes":"47","size_leaf_vector":"1"}},{"base_weights":[2.5120947E3,-6.440533E4,1.6862064E5,-1.1591242E5,-2.9049785E3,1.3026734E5,3.763898E5,-2.3731202E5,-1.0340317E5,-3.0233938E4,1.1483616E5,7.353919E4,2.0367873E5,3.1607603E5,7.6480256E5,-2.8220984E4,-1.5393078E5,-1.7274889E5,-7.823497E4,9.920124E4,-5.2235355E4,4.360156E4,1.7126428E5,1.9031744E4,1.9135445E5,3.0703912E5,1.8218758E5,1.71255E4,3.6529925E5,8.65857E4,2.3081963E4,-1.8446787E4,-4.673961E3,-1.7983725E4,5.495467E3,-6.2295835E3,-1.4362192E4,-2.1239953E4,1.5323097E4,-1.1613836E4,4.173437E3,6.036284E3,-1.6257331E4,-1.7141959E3,2.1486307E4,2.303179E4,-4.016328E3,2.0043506E4,-5.869319E3,6.3308684E4,1.902044E4,2.5953914E4,1.4296211E4,8.615125E3,3.8778234E4],"categories":[],"categories_nodes":[],"categories_segments":[],"categories_sizes":[],"default_left":[0,0,0,0,0,0,0,0,0,0,0,0,0,0,0,0,0,0,0,0,0,0,0,0,0,0,0,0,0,0,0,0,0,0,0,0,0,0,0,0,0,0,0,0,0,0,0,0,0,0,0,0,0,0,0],"id":21,"left_children":[1,3,5,7,9,11,13,15,17,19,21,23,25,27,29,-1,31,33,35,37,39,41,43,45,47,49,51,-1,53,-1,-1,-1,-1,-1,-1,-1,-1,-1,-1,-1,-1,-1,-1,-1,-1,-1,-1,-1,-1,-1,-1,-1,-1,-1,-1],"loss_changes":[8.825497E12,1.7925839E12,1.7678173E12,4.4319585E11,8.3686726E11,7.929329E11,5.7819687E11,6.1380887E10,4.7691648E11,6.060587E11,1.8949472E11,7.0917915E11,1.3065362E11,1.6555468E11,1.5988687E10,0E0,3.065774E10,1.2932193E11,2.0783288E11,5.5445304E11,1.0917426E12,8.929575E10,2.2546874E11,9.7229616E11,9.123463E10,3.7480222E11,1.8135463E11,0E0,1.10942224E11,0E0,0E0,0E0,0E0,0E0,0E0,0E0,0E0,0E0,0E0,0E0,0E0,0E0,0E0,0E0,0E0,0E0,0E0,0E0,0E0,0E0,0E0,0E0,0E0,0E0,0E0],"parents":[2147483647,0,0,1,1,2,2,3,3,4,4,5,5,6,6,7,7,8,8,9,9,10,10,11,11,12,12,13,13,14,14,16,16,17,17,18,18,19,19,20,20,21,21,22,22,23,23,24,24,25,25,26,26,28,28],"right_children":[2,4,6,8,10,12,14,16,18,20,22,24,26,28,30,-1,32,34,36,38,40,42,44,46,48,50,52,-1,54,-1,-1,-1,-1,-1,-1,-1,-1,-1,-1,-1,-1,-1,-1,-1,-1,-1,-1,-1,-1,-1,-1,-1,-1,-1,-1],"split_conditions":[2.016E3,2.01E3,2.018E3,1E1,4.028169E-1,4.028169E-1,2.02E3,4.028169E-1,2.002E3,2E0,2.4E1,3.5E1,7E0,2E0,1E0,-2.8220984E4,3.5E1,7.9492956E-1,3.8E1,2E0,3.7E1,6.619718E-1,2E0,2E0,1E0,1E0,1.9E1,1.71255E4,1E0,8.65857E4,2.3081963E4,-1.8446787E4,-4.673961E3,-1.7983725E4,5.495467E3,-6.2295835E3,-1.4362192E4,-2.1239953E4,1.5323097E4,-1.1613836E4,4.173437E3,6.036284E3,-1.6257331E4,-1.7141959E3,2.1486307E4,2.303179E4,-4.016328E3,2.0043506E4,-5.869319E3,6.3308684E4,1.902044E4,2.5953914E4,1.4296211E4,8.615125E3,3.8778234E4],"split_indices":[7,7,7,5,9,9,7,9,7,6,6,6,5,6,5,0,6,9,6,5,6,9,5,6,1,2,6,0,5,0,0,0,0,0,0,0,0,0,0,0,0,0,0,0,0,0,0,0,0,0,0,0,0,0,0],"split_type":[0,0,0,0,0,0,0,0,0,0,0,0,0,0,0,0,0,0,0,0,0,0,0,0,0,0,0,0,0,0,0,0,0,0,0,0,0,0,0,0,0,0,0,0,0,0,0,0,0,0,0,0,0,0,0],"sum_hessian":[7.92E2,5.65E2,2.27E2,3.07E2,2.58E2,1.93E2,3.4E1,2.7E1,2.8E2,2.1E2,4.8E1,1.1E2,8.3E1,3.1E1,3E0,1.6E1,1.1E1,7.3E1,2.07E2,3E1,1.8E2,2.2E1,2.6E1,7.6E1,3.4E1,1.2E1,7.1E1,9E0,2.2E1,2E0,1E0,8E0,3E0,7.1E1,2E0,1.68E2,3.9E1,4E0,2.6E1,1.07E2,7.3E1,2.1E1,1E0,5E0,2.1E1,1.6E1,6E1,3.3E1,1E0,2E0,1E1,2.2E1,4.9E1,2E0,2E1],"tree_param":{"num_deleted":"0","num_feature":"11","num_nodes":"55","size_leaf_vector":"1"}},{"base_weights":[2.5657288E3,5.306002E4,-6.5214414E4,-1.9597845E5,6.616585E4,-4.9644527E4,-1.7717005E5,-4.0170876E3,-2.0123467E5,5.1642285E4,3.2281889E4,-7.433581E4,1.0321253E4,-1.8994714E5,4.798894E3,-2.14061E4,-9.000093E3,-3.7526292E3,7.423046E4,3.931407E4,-9.788679E4,-1.9981912E4,-5.3612705E3,1.2353015E4,-8.176936E3,1.8971902E4,5.297556E3,4.477107E3,-1.0039682E4,-1.3530679E4,1.5492936E3],"categories":[],"categories_nodes":[],"categories_segments":[],"categories_sizes":[],"default_left":[0,0,0,0,0,0,0,0,0,0,0,0,0,0,0,0,0,0,0,0,0,0,0,0,0,0,0,0,0,0,0],"id":22,"left_children":[1,3,5,7,9,11,13,-1,15,17,-1,19,-1,21,-1,-1,-1,23,25,27,29,-1,-1,-1,-1,-1,-1,-1,-1,-1,-1],"loss_changes":[2.7175108E12,1.4980218E12,5.821277E11,1.0752295E10,1.5973435E12,1.1361693E12,1.2706736E11,0E0,1.2122128E10,5.145506E11,0E0,6.944024E11,0E0,4.177671E10,0E0,0E0,0E0,1.2017231E12,7.067212E11,3.880293E10,9.1002726E11,0E0,0E0,0E0,0E0,0E0,0E0,0E0,0E0,0E0,0E0],"parents":[2147483647,0,0,1,1,2,2,3,3,4,4,5,5,6,6,8,8,9,9,11,11,13,13,17,17,18,18,19,19,20,20],"right_children":[2,4,6,8,10,12,14,-1,16,18,-1,20,-1,22,-1,-1,-1,24,26,28,30,-1,-1,-1,-1,-1,-1,-1,-1,-1,-1],"split_conditions":[1E0,3.2957748E-1,3.8E1,1.4366198E-1,5.7E1,3.5E1,4.028169E-1,-4.0170876E3,5.7E1,9E0,3.2281889E4,2E0,1.0321253E4,5.8E1,4.798894E3,-2.14061E4,-9.000093E3,2E0,1.9E1,4.028169E-1,5.2E-1,-1.9981912E4,-5.3612705E3,1.2353015E4,-8.176936E3,1.8971902E4,5.297556E3,4.477107E3,-1.0039682E4,-1.3530679E4,1.5492936E3],"split_indices":[1,9,6,9,6,6,9,0,6,6,0,6,0,6,0,0,0,6,6,9,9,0,0,0,0,0,0,0,0,0,0],"split_type":[0,0,0,0,0,0,0,0,0,0,0,0,0,0,0,0,0,0,0,0,0,0,0,0,0,0,0,0,0,0,0],"sum_hessian":[7.92E2,4.54E2,3.38E2,2.2E1,4.32E2,2.98E2,4E1,1E0,2.1E1,4.1E2,2.2E1,2.57E2,4.1E1,3.8E1,2E0,1.8E1,3E0,1.19E2,2.91E2,4.4E1,2.13E2,3.5E1,3E0,4.5E1,7.4E1,4.4E1,2.47E2,4.3E1,1E0,1.6E2,5.3E1],"tree_param":{"num_deleted":"0","num_feature":"11","num_nodes":"31","size_leaf_vector":"1"}},{"base_weights":[2.307315E3,-7.534489E4,1.1148403E5,-1.9936662E5,-6.0555445E4,8.492747E4,3.328914E5,-2.7401035E4,-8.679356E4,-1.0603644E5,-2.147586E4,4.020785E4,1.6710016E5,2.7598388E5,7.0492894E5,-1.4879405E5,-3.7136125E3,-1.6127542E5,-8.436714E4,-3.559756E4,8.3401695E4,5.632473E4,-1.4160544E5,7.050427E4,2.313989E5,2.441673E5,4.37658E4,7.954853E4,2.1662988E4,-5.9377515E3,-1.8608014E4,-1.6457162E4,3.2445237E3,-1.988898E4,-1.3037569E4,-9.470447E3,1.255714E4,1.6212854E2,-7.030271E3,1.0001514E4,-3.7129314E3,1.0871403E3,9.50362E3,7.0364253E3,-1.7691285E4,1.0675582E4,-2.2635865E4,2.4504152E4,-1.1858597E4,7.6876167E3,2.5371197E4],"categories":[],"categories_nodes":[],"categories_segments":[],"categories_sizes":[],"default_left":[0,0,0,0,0,0,0,0,0,0,0,0,0,0,0,0,0,0,0,0,0,0,0,0,0,0,0,0,0,0,0,0,0,0,0,0,0,0,0,0,0,0,0,0,0,0,0,0,0,0,0],"id":23,"left_children":[1,3,5,7,9,11,13,-1,15,17,19,21,23,25,27,29,31,33,35,37,39,41,43,45,47,49,-1,-1,-1,-1,-1,-1,-1,-1,-1,-1,-1,-1,-1,-1,-1,-1,-1,-1,-1,-1,-1,-1,-1,-1,-1],"loss_changes":[6.7313053E12,8.3900183E11,1.9120686E12,3.8795857E11,7.371122E11,1.0810018E12,5.4646224E11,0E0,1.0761839E11,2.1621572E11,3.36205E11,5.735166E11,6.29629E11,5.7743245E10,4.5484605E9,2.89589E10,6.350397E10,3.5670196E10,3.1572066E11,2.571594E11,5.7779225E10,3.1216946E11,1.3219394E11,4.8691996E11,3.2508976E11,2.6801078E10,0E0,0E0,0E0,0E0,0E0,0E0,0E0,0E0,0E0,0E0,0E0,0E0,0E0,0E0,0E0,0E0,0E0,0E0,0E0,0E0,0E0,0E0,0E0,0E0,0E0],"parents":[2147483647,0,0,1,1,2,2,3,3,4,4,5,5,6,6,8,8,9,9,10,10,11,11,12,12,13,13,14,14,15,15,16,16,17,17,18,18,19,19,20,20,21,21,22,22,23,23,24,24,25,25],"right_children":[2,4,6,8,10,12,14,-1,16,18,20,22,24,26,28,30,32,34,36,38,40,42,44,46,48,50,-1,-1,-1,-1,-1,-1,-1,-1,-1,-1,-1,-1,-1,-1,-1,-1,-1,-1,-1,-1,-1,-1,-1,-1,-1],"split_conditions":[2.014E3,1E1,2.018E3,4.028169E-1,2.006E3,4.028169E-1,2.02E3,-2.7401035E4,2.007E3,2E3,4.9295774E-1,1E0,2.9408652E-1,4.9295774E-1,1E0,1E0,2.1837728E-1,1.996E3,5.253521E-1,4.7659457E-1,1E0,2.5886437E-1,2.7937996E-1,2.8738767E-1,5.253521E-1,1E0,4.37658E4,7.954853E4,2.1662988E4,-5.9377515E3,-1.8608014E4,-1.6457162E4,3.2445237E3,-1.988898E4,-1.3037569E4,-9.470447E3,1.255714E4,1.6212854E2,-7.030271E3,1.0001514E4,-3.7129314E3,1.0871403E3,9.50362E3,7.0364253E3,-1.7691285E4,1.0675582E4,-2.2635865E4,2.4504152E4,-1.1858597E4,7.6876167E3,2.5371197E4],"split_indices":[7,5,7,9,7,9,7,0,7,7,9,1,10,9,5,5,10,7,9,10,4,10,10,10,9,5,0,0,0,0,0,0,0,0,0,0,0,0,0,0,0,0,0,0,0,0,0,0,0,0,0],"split_type":[0,0,0,0,0,0,0,0,0,0,0,0,0,0,0,0,0,0,0,0,0,0,0,0,0,0,0,0,0,0,0,0,0,0,0,0,0,0,0,0,0,0,0,0,0,0,0,0,0,0,0],"sum_hessian":[7.92E2,4.63E2,3.29E2,4.8E1,4.15E2,2.95E2,3.4E1,2.8E1,2E1,1.91E2,2.24E2,1.92E2,1.03E2,3.1E1,3E0,1.1E1,9E0,5.2E1,1.39E2,1.98E2,2.6E1,1.77E2,1.5E1,4.2E1,6.1E1,2.8E1,3E0,2E0,1E0,4E0,7E0,1E0,8E0,2.1E1,3.1E1,1.33E2,6E0,9.6E1,1.02E2,2.3E1,3E0,8.2E1,9.5E1,2E0,1.3E1,3.8E1,4E0,5.9E1,2E0,2E0,2.6E1],"tree_param":{"num_deleted":"0","num_feature":"11","num_nodes":"51","size_leaf_vector":"1"}},{"base_weights":[2.1813428E3,-6.801639E4,1.00877E5,-1.8075975E5,-5.4573023E4,7.643681E4,3.04689E5,-2.4755417E5,-7.991222E4,-9.55882E4,-1.9330857E4,3.618673E4,1.503967E5,2.5078622E5,6.59739E4,-1.5364142E5,-2.704518E5,-1.3596014E5,-4.6635E3,-2.8134092E4,-8.9117055E4,-3.2072326E4,7.5294445E4,-1.0563969E5,6.609867E4,6.317576E4,2.0846289E5,2.2089048E5,4.048337E4,-2.2921904E4,-2.0759048E3,-1.5987849E4,-3.0192438E4,-5.4627314E3,-1.6979812E4,-1.5634307E4,2.9561238E3,-9.700853E3,7.7737383E3,-9.69671E3,-4.031191E2,1.0553448E4,-7.8868604E3,-4.5586606E3,-4.4483027E4,7.6805035E2,1.1380809E4,9.635405E3,-2.0825006E4,2.2094566E4,-1.1068021E4,7.1751167E3,2.292804E4],"categories":[],"categories_nodes":[],"categories_segments":[],"categories_sizes":[],"default_left":[0,0,0,0,0,0,0,0,0,0,0,0,0,0,0,0,0,0,0,0,0,0,0,0,0,0,0,0,0,0,0,0,0,0,0,0,0,0,0,0,0,0,0,0,0,0,0,0,0,0,0,0,0],"id":24,"left_children":[1,3,5,7,9,11,13,15,17,19,21,23,25,27,-1,29,31,33,35,-1,37,39,41,43,45,47,49,51,-1,-1,-1,-1,-1,-1,-1,-1,-1,-1,-1,-1,-1,-1,-1,-1,-1,-1,-1,-1,-1,-1,-1,-1,-1],"loss_changes":[5.500933E12,6.9339696E11,1.6205076E12,3.1028412E11,5.99465E11,8.757177E11,5.0438288E11,2.0808335E10,8.793417E10,2.0571829E11,2.736896E11,8.257474E11,5.1354744E11,5.794785E10,0E0,7.558508E10,2.8289532E10,2.375005E10,5.6533623E10,0E0,2.5376902E11,3.61734E11,1.34194545E11,6.722826E11,4.450612E11,4.0729985E11,2.7144933E11,1.983552E10,0E0,0E0,0E0,0E0,0E0,0E0,0E0,0E0,0E0,0E0,0E0,0E0,0E0,0E0,0E0,0E0,0E0,0E0,0E0,0E0,0E0,0E0,0E0,0E0,0E0],"parents":[2147483647,0,0,1,1,2,2,3,3,4,4,5,5,6,6,7,7,8,8,9,9,10,10,11,11,12,12,13,13,15,15,16,16,17,17,18,18,20,20,21,21,22,22,23,23,24,24,25,25,26,26,27,27],"right_children":[2,4,6,8,10,12,14,16,18,20,22,24,26,28,-1,30,32,34,36,-1,38,40,42,44,46,48,50,52,-1,-1,-1,-1,-1,-1,-1,-1,-1,-1,-1,-1,-1,-1,-1,-1,-1,-1,-1,-1,-1,-1,-1,-1,-1],"split_conditions":[2.014E3,1E1,2.018E3,4.028169E-1,2.006E3,4.028169E-1,2.02E3,1E0,2.007E3,1.8528758E-1,4.9295774E-1,7.5E-1,2.9408652E-1,4.9295774E-1,6.59739E4,3.2394367E-1,1E0,1E0,2.1837728E-1,-2.8134092E4,5.253521E-1,1E0,7.5E-1,5E-1,1E0,2.8738767E-1,5.253521E-1,1E0,4.048337E4,-2.2921904E4,-2.0759048E3,-1.5987849E4,-3.0192438E4,-5.4627314E3,-1.6979812E4,-1.5634307E4,2.9561238E3,-9.700853E3,7.7737383E3,-9.69671E3,-4.031191E2,1.0553448E4,-7.8868604E3,-4.5586606E3,-4.4483027E4,7.6805035E2,1.1380809E4,9.635405E3,-2.0825006E4,2.2094566E4,-1.1068021E4,7.1751167E3,2.292804E4],"split_indices":[7,5,7,9,7,9,7,8,7,10,9,8,10,9,0,9,4,5,10,0,9,8,8,8,4,10,9,5,0,0,0,0,0,0,0,0,0,0,0,0,0,0,0,0,0,0,0,0,0,0,0,0,0],"split_type":[0,0,0,0,0,0,0,0,0,0,0,0,0,0,0,0,0,0,0,0,0,0,0,0,0,0,0,0,0,0,0,0,0,0,0,0,0,0,0,0,0,0,0,0,0,0,0,0,0,0,0,0,0],"sum_hessian":[7.92E2,4.63E2,3.29E2,4.8E1,4.15E2,2.95E2,3.4E1,2.8E1,2E1,1.91E2,2.24E2,1.92E2,1.03E2,3.1E1,3E0,7E0,2.1E1,1.1E1,9E0,5E0,1.86E2,1.98E2,2.6E1,3.3E1,1.59E2,4.2E1,6.1E1,2.8E1,3E0,4E0,3E0,6E0,1.5E1,4E0,7E0,1E0,8E0,1.78E2,8E0,5.9E1,1.39E2,2.2E1,4E0,2.9E1,4E0,7.2E1,8.7E1,3.8E1,4E0,5.9E1,2E0,2E0,2.6E1],"tree_param":{"num_deleted":"0","num_feature":"11","num_nodes":"53","size_leaf_vector":"1"}},{"base_weights":[1.9073772E3,-6.152464E4,9.109086E4,-2.2890942E5,-5.3469223E4,6.866797E4,2.7812184E5,-2.644041E4,-9.61054E4,-8.751664E4,-2.5202826E4,3.237694E4,1.3535547E5,2.2791347E5,6.1025844E5,-3.0347738E4,-2.1244686E4,-9.230461E4,3.953115E4,-1.0695071E4,-1.1152928E5,1.9148425E5,7.560471E3,3.3611916E5,1.2396373E5,1.0125502E5,2.7307307E4,6.984703E4,1.7281139E4,-1.047082E4,1.3354706E4,-1.6378638E4,-8.406337E3,7.424566E3,-4.3074917E3,-3.992725E3,8.1223433E3,-1.6385818E4,2.4226457E2,2.4325812E4,9.876912E3,-4.7268433E3,1.0451065E4,-2.805975E3,4.3417883E4,1.2965589E4,-1.0330154E4,7.367439E3,1.7474037E4],"categories":[],"categories_nodes":[],"categories_segments":[],"categories_sizes":[],"default_left":[0,0,0,0,0,0,0,0,0,0,0,0,0,0,0,0,0,0,0,0,0,0,0,0,0,0,0,0,0,0,0,0,0,0,0,0,0,0,0,0,0,0,0,0,0,0,0,0,0],"id":25,"left_children":[1,3,5,7,9,11,13,-1,15,17,19,21,23,25,27,29,-1,31,33,35,37,39,41,43,45,47,-1,-1,-1,-1,-1,-1,-1,-1,-1,-1,-1,-1,-1,-1,-1,-1,-1,-1,-1,-1,-1,-1,-1],"loss_changes":[4.491675E12,6.1339664E11,1.364848E12,7.357989E10,4.2509913E11,7.119843E11,4.4457525E11,0E0,3.9454765E10,1.2591707E11,3.0439355E11,7.606092E11,1.9618634E11,1.5538507E11,3.3648542E10,7.4919944E10,0E0,1.0051689E11,2.6139156E10,5.6750834E11,2.0910126E11,1.00779426E11,8.97973E11,1.9073925E11,1.427568E11,7.393829E9,0E0,0E0,0E0,0E0,0E0,0E0,0E0,0E0,0E0,0E0,0E0,0E0,0E0,0E0,0E0,0E0,0E0,0E0,0E0,0E0,0E0,0E0,0E0],"parents":[2147483647,0,0,1,1,2,2,3,3,4,4,5,5,6,6,8,8,9,9,10,10,11,11,12,12,13,13,14,14,15,15,17,17,18,18,19,19,20,20,21,21,22,22,23,23,24,24,25,25],"right_children":[2,4,6,8,10,12,14,-1,16,18,20,22,24,26,28,30,-1,32,34,36,38,40,42,44,46,48,-1,-1,-1,-1,-1,-1,-1,-1,-1,-1,-1,-1,-1,-1,-1,-1,-1,-1,-1,-1,-1,-1,-1],"split_conditions":[2.014E3,1E0,2.018E3,5.253521E-1,2.006E3,4.028169E-1,2.02E3,-2.644041E4,2.006E3,6.3380283E-1,3.8E1,2E0,2.5E-1,2E0,1.1E1,7.9492956E-1,-2.1244686E4,1.996E3,7.9492956E-1,3.7E1,4.028169E-1,2.017E3,3.5E1,2.4E1,5.253521E-1,2.019E3,2.7307307E4,6.984703E4,1.7281139E4,-1.047082E4,1.3354706E4,-1.6378638E4,-8.406337E3,7.424566E3,-4.3074917E3,-3.992725E3,8.1223433E3,-1.6385818E4,2.4226457E2,2.4325812E4,9.876912E3,-4.7268433E3,1.0451065E4,-2.805975E3,4.3417883E4,1.2965589E4,-1.0330154E4,7.367439E3,1.7474037E4],"split_indices":[7,0,7,9,7,9,7,0,7,9,6,6,8,6,6,9,0,7,9,6,9,7,6,6,9,7,0,0,0,0,0,0,0,0,0,0,0,0,0,0,0,0,0,0,0,0,0,0,0],"split_type":[0,0,0,0,0,0,0,0,0,0,0,0,0,0,0,0,0,0,0,0,0,0,0,0,0,0,0,0,0,0,0,0,0,0,0,0,0,0,0,0,0,0,0,0,0,0,0,0,0],"sum_hessian":[7.92E2,4.63E2,3.29E2,2E1,4.43E2,2.95E2,3.4E1,1.5E1,5E0,2E2,2.43E2,1.92E2,1.03E2,3.1E1,3E0,4E0,1E0,1.93E2,7E0,2.09E2,3.4E1,2.5E1,1.67E2,4E0,9.9E1,9E0,2.2E1,2E0,1E0,3E0,1E0,1.8E1,1.75E2,5E0,2E0,1.59E2,5E1,2.3E1,1.1E1,1.5E1,1E1,1.07E2,6E1,1E0,3E0,9.7E1,2E0,8E0,1E0],"tree_param":{"num_deleted":"0","num_feature":"11","num_nodes":"49","size_leaf_vector":"1"}},{"base_weights":[1.8982075E3,3.3864824E4,-4.1012438E4,2.3409766E4,2.0547294E5,4.8303203E4,-5.4497832E4,-1.5218078E5,3.189736E4,2.475461E5,-8.781594E3,5.3476636E3,-8.966394E3,-1.0226432E5,-2.5543357E4,-1.9191219E5,-1.0222671E5,-1.8976981E5,3.789846E4,4.1375125E4,2.120146E5,-2.3049998E4,-9.5316266E4,4.0806335E3,-1.2968812E5,-3.6045437E3,-2.0522568E4,-1.2390931E4,-5.1425737E3,-3.0894126E3,-2.4548643E4,-1.0776005E3,5.8476606E3,1.834048E4,3.9210527E4,8.710963E3,-9.785905E3,-3.2516365E3,9.460462E3,-1.4119839E4,6.3174795E3],"categories":[],"categories_nodes":[],"categories_segments":[],"categories_sizes":[],"default_left":[0,0,0,0,0,0,0,0,0,0,0,0,0,0,0,0,0,0,0,0,0,0,0,0,0,0,0,0,0,0,0,0,0,0,0,0,0,0,0,0,0],"id":26,"left_children":[1,3,5,7,9,11,13,15,17,19,-1,-1,-1,21,23,25,27,29,31,-1,33,-1,35,37,39,-1,-1,-1,-1,-1,-1,-1,-1,-1,-1,-1,-1,-1,-1,-1,-1],"loss_changes":[1.0891535E12,8.115387E11,4.109433E11,6.45701E11,3.4256794E11,3.691429E10,4.053886E11,2.0076397E10,5.539235E11,4.8105652E10,0E0,0E0,0E0,7.692943E10,5.712882E11,1.3353812E10,5.744345E9,8.978809E10,4.0228382E11,0E0,3.6285514E10,0E0,5.8158547E10,4.8344757E11,9.993624E10,0E0,0E0,0E0,0E0,0E0,0E0,0E0,0E0,0E0,0E0,0E0,0E0,0E0,0E0,0E0,0E0],"parents":[2147483647,0,0,1,1,2,2,3,3,4,4,5,5,6,6,7,7,8,8,9,9,13,13,14,14,15,15,16,16,17,17,18,18,20,20,22,22,23,23,24,24],"right_children":[2,4,6,8,10,12,14,16,18,20,-1,-1,-1,22,24,26,28,30,32,-1,34,-1,36,38,40,-1,-1,-1,-1,-1,-1,-1,-1,-1,-1,-1,-1,-1,-1,-1,-1],"split_conditions":[1E0,5.7E1,2E0,3.2957748E-1,6E1,4.028169E-1,1.8E1,2.5661972E-1,1E0,2.5E-1,-8.781594E3,5.3476636E3,-8.966394E3,1E0,3.8E1,1.4366198E-1,5.2E1,2.5E1,9E0,4.1375125E4,1E0,-2.3049998E4,2.5E-1,3.5E1,4.028169E-1,-3.6045437E3,-2.0522568E4,-1.2390931E4,-5.1425737E3,-3.0894126E3,-2.4548643E4,-1.0776005E3,5.8476606E3,1.834048E4,3.9210527E4,8.710963E3,-9.785905E3,-3.2516365E3,9.460462E3,-1.4119839E4,6.3174795E3],"split_indices":[1,6,6,9,6,9,6,9,0,8,0,0,0,0,6,9,6,6,6,0,8,0,8,6,9,0,0,0,0,0,0,0,0,0,0,0,0,0,0,0,0],"split_type":[0,0,0,0,0,0,0,0,0,0,0,0,0,0,0,0,0,0,0,0,0,0,0,0,0,0,0,0,0,0,0,0,0,0,0,0,0,0,0,0,0],"sum_hessian":[7.92E2,4.54E2,3.38E2,4.29E2,2.5E1,4.4E1,2.94E2,1.9E1,4.1E2,2.2E1,3E0,4.3E1,1E0,1.1E2,1.84E2,9E0,1E1,1E1,4E2,2E0,2E1,4E0,1.06E2,1.44E2,4E1,1E0,8E0,6E0,4E0,3E0,7E0,1.19E2,2.81E2,1.9E1,1E0,1E0,1.05E2,1.03E2,4.1E1,3.8E1,2E0],"tree_param":{"num_deleted":"0","num_feature":"11","num_nodes":"41","size_leaf_vector":"1"}},{"base_weights":[1.7036752E3,-3.996723E4,1.051424E5,-6.665757E4,2.6273142E3,9.647089E4,5.6662894E5,-2.4382229E4,-6.2305734E4,-5.733716E4,3.4897504E4,5.671067E4,1.5333392E5,6.480073E4,1.61246875E4,-1.367478E5,-5.4420406E4,8.36499E4,-1.0176796E5,-2.1663614E5,4.558087E4,4.370031E4,2.8651294E5,3.43226E5,1.3609464E5,-1.5550422E4,-2.9552605E3,-1.1292916E4,-4.246336E3,1.4229991E3,2.7517967E4,-3.249113E3,-1.6329249E4,-8.971084E3,-2.576711E4,-4.6362505E3,6.940612E3,1.7812771E4,2.150757E3,5.268547E4,-2.5457063E3,-2.9813333E2,4.823052E4,9.535479E3,2.0186332E4],"categories":[],"categories_nodes":[],"categories_segments":[],"categories_sizes":[],"default_left":[0,0,0,0,0,0,0,0,0,0,0,0,0,0,0,0,0,0,0,0,0,0,0,0,0,0,0,0,0,0,0,0,0,0,0,0,0,0,0,0,0,0,0,0,0],"id":27,"left_children":[1,3,5,7,9,11,13,-1,15,17,19,21,23,-1,-1,25,27,29,31,33,35,37,39,41,43,-1,-1,-1,-1,-1,-1,-1,-1,-1,-1,-1,-1,-1,-1,-1,-1,-1,-1,-1,-1],"loss_changes":[3.422338E12,6.436394E11,8.577433E11,2.531134E11,4.2578018E11,5.0000364E11,2.7468104E10,0E0,1.9272525E11,4.9085376E11,3.941478E11,3.8811402E11,2.5446043E11,0E0,0E0,5.9743535E10,2.120781E11,2.4870778E11,2.461656E11,8.134361E9,3.0551694E11,3.7803288E11,5.38268E11,3.384895E11,2.1118032E11,0E0,0E0,0E0,0E0,0E0,0E0,0E0,0E0,0E0,0E0,0E0,0E0,0E0,0E0,0E0,0E0,0E0,0E0,0E0,0E0],"parents":[2147483647,0,0,1,1,2,2,3,3,4,4,5,5,6,6,8,8,9,9,10,10,11,11,12,12,15,15,16,16,17,17,18,18,19,19,20,20,21,21,22,22,23,23,24,24],"right_children":[2,4,6,8,10,12,14,-1,16,18,20,22,24,-1,-1,26,28,30,32,34,36,38,40,42,44,-1,-1,-1,-1,-1,-1,-1,-1,-1,-1,-1,-1,-1,-1,-1,-1,-1,-1,-1,-1],"split_conditions":[2.016E3,2.011E3,2.02E3,1.8528758E-1,3.3313236E-1,2.017E3,1E0,-2.4382229E4,1E1,8E0,1E0,6.5182287E-1,7.5E-1,6.480073E4,1.61246875E4,2.01E3,2E3,2E0,1E0,9E0,5E-1,2.109946E-1,6.69103E-1,5E-1,2.018E3,-1.5550422E4,-2.9552605E3,-1.1292916E4,-4.246336E3,1.4229991E3,2.7517967E4,-3.249113E3,-1.6329249E4,-8.971084E3,-2.576711E4,-4.6362505E3,6.940612E3,1.7812771E4,2.150757E3,5.268547E4,-2.5457063E3,-2.9813333E2,4.823052E4,9.535479E3,2.0186332E4],"split_indices":[7,7,7,10,10,7,5,0,5,5,0,10,8,0,0,7,7,5,4,5,8,10,10,8,7,0,0,0,0,0,0,0,0,0,0,0,0,0,0,0,0,0,0,0,0],"split_type":[0,0,0,0,0,0,0,0,0,0,0,0,0,0,0,0,0,0,0,0,0,0,0,0,0,0,0,0,0,0,0,0,0,0,0,0,0,0,0,0,0,0,0,0,0],"sum_hessian":[7.92E2,5.65E2,2.27E2,3.47E2,2.18E2,2.24E2,3E0,7E0,3.4E2,7.6E1,1.42E2,1.33E2,9.1E1,2E0,1E0,3.1E1,3.09E2,1.8E1,5.8E1,5E0,1.37E2,1.27E2,6E0,6E0,8.5E1,2.6E1,5E0,5.1E1,2.58E2,1.4E1,4E0,2.8E1,3E1,2E0,3E0,2.8E1,1.09E2,1.7E1,1.1E2,3E0,3E0,2E0,4E0,5.4E1,3.1E1],"tree_param":{"num_deleted":"0","num_feature":"11","num_nodes":"45","size_leaf_vector":"1"}},{"base_weights":[1.7189232E3,-3.611449E4,9.5631164E4,-6.015969E4,2.259236E3,8.7480516E4,5.301975E5,2.1360924E4,-7.17228E4,-3.457708E4,5.748803E4,4.682976E4,1.4682525E5,6.04807E4,1.531845E4,-3.7522562E4,9.3897234E4,-8.81038E4,-3.2232281E4,-1.8908121E4,-2.7508238E5,1.0810311E5,-3.4466586E4,9.552069E4,-2.3564947E4,9.986392E4,3.0854478E5,-1.4069281E3,-1.5713497E4,1.2312914E4,3.4658235E3,-1.4125432E4,-7.4383706E3,-2.3430986E4,-2.2680662E3,-7.416157E3,4.41578E3,-8.589142E3,-3.2383078E4,1.1109132E3,1.4904783E4,-2.7479896E4,4.381844E3,4.702665E3,3.6640137E4,-1.0780345E3,-3.6335902E4,-4.011077E3,1.2852737E4,1.8342531E4,5.6991934E4],"categories":[],"categories_nodes":[],"categories_segments":[],"categories_sizes":[],"default_left":[0,0,0,0,0,0,0,0,0,0,0,0,0,0,0,0,0,0,0,0,0,0,0,0,0,0,0,0,0,0,0,0,0,0,0,0,0,0,0,0,0,0,0,0,0,0,0,0,0,0,0],"id":28,"left_children":[1,3,5,7,9,11,13,15,17,19,21,23,25,-1,-1,27,29,31,33,35,37,39,41,43,45,47,49,-1,-1,-1,-1,-1,-1,-1,-1,-1,-1,-1,-1,-1,-1,-1,-1,-1,-1,-1,-1,-1,-1,-1,-1],"loss_changes":[2.820999E12,5.2238634E11,7.611937E11,3.2956783E11,4.4752683E11,5.3591618E11,1.9867894E10,1.9145566E11,1.94463E11,4.9223637E11,4.1330354E11,4.6497474E11,6.6029276E11,0E0,0E0,6.7921814E10,3.0365958E10,1.462774E11,1.7033101E11,4.3885098E11,4.5967802E10,2.2471338E11,6.1410286E11,1.033657E12,2.3935422E11,2.9403067E11,5.495233E11,0E0,0E0,0E0,0E0,0E0,0E0,0E0,0E0,0E0,0E0,0E0,0E0,0E0,0E0,0E0,0E0,0E0,0E0,0E0,0E0,0E0,0E0,0E0,0E0],"parents":[2147483647,0,0,1,1,2,2,3,3,4,4,5,5,6,6,7,7,8,8,9,9,10,10,11,11,12,12,15,15,16,16,17,17,18,18,19,19,20,20,21,21,22,22,23,23,24,24,25,25,26,26],"right_children":[2,4,6,8,10,12,14,16,18,20,22,24,26,-1,-1,28,30,32,34,36,38,40,42,44,46,48,50,-1,-1,-1,-1,-1,-1,-1,-1,-1,-1,-1,-1,-1,-1,-1,-1,-1,-1,-1,-1,-1,-1,-1,-1],"split_conditions":[2.016E3,2.011E3,2.02E3,2E0,3.1E1,2.7E1,1.1E1,2.008E3,4.6478873E-1,2.4E1,3.8E1,1.9E1,4.9295774E-1,6.04807E4,1.531845E4,1E0,5.522155E-1,1E0,1.8378752E-1,4.0070885E-1,4.0070885E-1,3.3313236E-1,5.5E1,1.4E1,2.4E1,3.5E1,1E0,-1.4069281E3,-1.5713497E4,1.2312914E4,3.4658235E3,-1.4125432E4,-7.4383706E3,-2.3430986E4,-2.2680662E3,-7.416157E3,4.41578E3,-8.589142E3,-3.2383078E4,1.1109132E3,1.4904783E4,-2.7479896E4,4.381844E3,4.702665E3,3.6640137E4,-1.0780345E3,-3.6335902E4,-4.011077E3,1.2852737E4,1.8342531E4,5.6991934E4],"split_indices":[7,7,7,6,6,6,6,7,9,6,6,6,9,0,0,4,10,1,10,10,10,10,6,6,6,6,4,0,0,0,0,0,0,0,0,0,0,0,0,0,0,0,0,0,0,0,0,0,0,0,0],"split_type":[0,0,0,0,0,0,0,0,0,0,0,0,0,0,0,0,0,0,0,0,0,0,0,0,0,0,0,0,0,0,0,0,0,0,0,0,0,0,0,0,0,0,0,0,0,0,0,0,0,0,0],"sum_hessian":[7.92E2,5.65E2,2.27E2,3.47E2,2.18E2,2.24E2,3E0,4.3E1,3.04E2,1.31E2,8.7E1,1.34E2,9E1,2E0,1E0,2.4E1,1.9E1,2.14E2,9E1,1.24E2,7E0,5.6E1,3.1E1,7.9E1,5.5E1,7.1E1,1.9E1,2.1E1,3E0,1.2E1,7E0,4.2E1,1.72E2,3E0,8.7E1,6.6E1,5.8E1,2E0,5E0,1.7E1,3.9E1,7E0,2.4E1,6.8E1,1.1E1,5.4E1,1E0,1.2E1,5.9E1,1.4E1,5E0],"tree_param":{"num_deleted":"0","num_feature":"11","num_nodes":"51","size_leaf_vector":"1"}},{"base_weights":[1.6280419E3,-4.43984E4,6.633907E4,-1.3304581E5,-3.3850027E4,3.3679402E4,1.4677427E5,-1.8184556E5,-5.9320184E4,-7.771389E4,-1.9167309E4,4.5658297E4,-1.0553523E5,1.2998961E5,4.9612762E5,-1.5256094E5,-2.5208852E4,-1.4495812E5,-3.6993965E4,-1.4755845E5,-6.699983E4,-5.6755266E4,-2.7745078E3,1.2585701E3,8.766823E4,-1.4514472E5,3.44003E4,1.1014317E5,2.8171606E5,5.6448668E4,1.4552525E4,-2.3613777E4,-1.2821753E4,1.6131344E3,-2.0403174E4,-1.18813125E4,-1.9340751E3,-7.7106157E3,-1.8195287E4,-7.5783174E3,-2.0542502E3,-7.369276E3,3.14794E3,4.9113228E3,-2.5969187E3,1.3399544E4,-2.8923203E3,1.9548309E4,7.1536147E3,-7.223005E3,-2.4247838E4,8.0634126E3,2.6833127E2,8.10044E3,1.8263545E4,3.2750076E4,1.3116388E4],"categories":[],"categories_nodes":[],"categories_segments":[],"categories_sizes":[],"default_left":[0,0,0,0,0,0,0,0,0,0,0,0,0,0,0,0,0,0,0,0,0,0,0,0,0,0,0,0,0,0,0,0,0,0,0,0,0,0,0,0,0,0,0,0,0,0,0,0,0,0,0,0,0,0,0,0,0],"id":29,"left_children":[1,3,5,7,9,11,13,15,17,19,21,23,25,27,29,31,-1,33,35,37,39,41,43,45,47,49,51,53,55,-1,-1,-1,-1,-1,-1,-1,-1,-1,-1,-1,-1,-1,-1,-1,-1,-1,-1,-1,-1,-1,-1,-1,-1,-1,-1,-1,-1],"loss_changes":[2.3648312E12,4.2937614E11,8.6196224E11,1.6550468E11,2.664314E11,3.9838086E11,4.9256713E11,2.119526E10,3.478882E10,6.793868E10,1.9270435E11,4.0650975E11,1.1030577E11,2.4600406E11,1.3720355E10,1.651753E10,0E0,4.1355846E10,2.370075E10,1.7471439E10,3.5983917E10,1.4429484E11,2.6484616E11,4.3254265E11,1.80815E11,8.894153E10,7.115622E9,1.6052965E11,2.597349E10,0E0,0E0,0E0,0E0,0E0,0E0,0E0,0E0,0E0,0E0,0E0,0E0,0E0,0E0,0E0,0E0,0E0,0E0,0E0,0E0,0E0,0E0,0E0,0E0,0E0,0E0,0E0,0E0],"parents":[2147483647,0,0,1,1,2,2,3,3,4,4,5,5,6,6,7,7,8,8,9,9,10,10,11,11,12,12,13,13,14,14,15,15,17,17,18,18,19,19,20,20,21,21,22,22,23,23,24,24,25,25,26,26,27,27,28,28],"right_children":[2,4,6,8,10,12,14,16,18,20,22,24,26,28,30,32,-1,34,36,38,40,42,44,46,48,50,52,54,56,-1,-1,-1,-1,-1,-1,-1,-1,-1,-1,-1,-1,-1,-1,-1,-1,-1,-1,-1,-1,-1,-1,-1,-1,-1,-1,-1,-1],"split_conditions":[2.014E3,1E1,2.017E3,4.028169E-1,2.004E3,1E0,2.02E3,2.012E3,1E0,1.994E3,1E0,2.9408652E-1,4.028169E-1,4.9295774E-1,1E0,2.6760563E-1,-2.5208852E4,1.994E3,2.463638E-1,3.7915492E-1,7.242525E-1,4.028169E-1,4.7659457E-1,2.0158242E-1,3.2110974E-1,2.015E3,2.015E3,3.161463E-1,3.5658926E-1,5.6448668E4,1.4552525E4,-2.3613777E4,-1.2821753E4,1.6131344E3,-2.0403174E4,-1.18813125E4,-1.9340751E3,-7.7106157E3,-1.8195287E4,-7.5783174E3,-2.0542502E3,-7.369276E3,3.14794E3,4.9113228E3,-2.5969187E3,1.3399544E4,-2.8923203E3,1.9548309E4,7.1536147E3,-7.223005E3,-2.4247838E4,8.0634126E3,2.6833127E2,8.10044E3,1.8263545E4,3.2750076E4,1.3116388E4],"split_indices":[7,5,7,9,7,1,7,7,0,7,1,10,9,9,5,9,0,7,10,9,10,9,10,10,10,7,7,10,10,0,0,0,0,0,0,0,0,0,0,0,0,0,0,0,0,0,0,0,0,0,0,0,0,0,0,0,0],"split_type":[0,0,0,0,0,0,0,0,0,0,0,0,0,0,0,0,0,0,0,0,0,0,0,0,0,0,0,0,0,0,0,0,0,0,0,0,0,0,0,0,0,0,0,0,0,0,0,0,0,0,0,0,0,0,0,0,0],"sum_hessian":[7.92E2,4.63E2,3.29E2,4.8E1,4.15E2,2.35E2,9.4E1,2.8E1,2E1,1.03E2,3.12E2,2.17E2,1.8E1,9.1E1,3E0,2.2E1,6E0,3E0,1.7E1,1.2E1,9.1E1,9.4E1,2.18E2,1.06E2,1.11E2,1.4E1,4E0,8.2E1,9E0,2E0,1E0,3E0,1.9E1,1E0,2E0,2E0,1.5E1,5E0,7E0,7.6E1,1.5E1,7.9E1,1.5E1,6.7E1,1.51E2,1.9E1,8.7E1,1.3E1,9.8E1,9E0,5E0,1E0,3E0,6E1,2.2E1,6E0,3E0],"tree_param":{"num_deleted":"0","num_feature":"11","num_nodes":"57","size_leaf_vector":"1"}},{"base_weights":[1.49752E3,2.9636066E4,-3.1579012E4,-1.993322E4,5.0547434E4,-5.028233E4,1.16725625E4,1.001508E5,-1.0077005E5,3.536845E5,4.5291617E4,3.2256018E4,-6.7646984E4,-2.0780228E5,3.546019E4,-1.5980197E5,1.25142734E5,1.8601594E4,-1.06991125E5,5.2685434E4,6.2619832E4,3.7444387E4,1.3748919E5,2.4233492E4,1.684921E4,-2.2867658E4,-6.181843E4,-3.9442578E5,1.3454948E4,1.1986291E5,-1.1114928E4,1.6874625E3,-2.0818979E4,3.5426133E3,1.5406421E4,-1.4518726E4,-6.0518013E3,1.38249E4,-4.4319253E3,5.339955E3,-3.9455137E3,3.6287066E4,9.874473E3,3.9437075E3,-2.0016761E3,-6.531536E3,1.3023104E4,6.3281E3,-4.9862336E4,-1.7043936E4,8.432167E3,1.8971852E4,3.9467388E3,-1.005E4,2.9468063E2],"categories":[],"categories_nodes":[],"categories_segments":[],"categories_sizes":[],"default_left":[0,0,0,0,0,0,0,0,0,0,0,0,0,0,0,0,0,0,0,0,0,0,0,0,0,0,0,0,0,0,0,0,0,0,0,0,0,0,0,0,0,0,0,0,0,0,0,0,0,0,0,0,0,0,0],"id":30,"left_children":[1,3,5,7,9,11,13,15,17,19,21,23,25,27,29,31,33,-1,35,-1,37,39,41,-1,43,-1,45,47,49,51,53,-1,-1,-1,-1,-1,-1,-1,-1,-1,-1,-1,-1,-1,-1,-1,-1,-1,-1,-1,-1,-1,-1,-1,-1],"loss_changes":[7.390012E11,4.4569254E11,2.9585287E11,1.2526151E12,4.6513724E11,3.676609E11,5.86876E11,3.578276E11,1.5727913E11,2.1902649E11,2.1045346E11,1.4156589E11,1.8390188E11,4.5951677E11,3.9837005E11,4.6258086E10,1.1908946E11,0E0,1.2612069E11,0E0,3.0390231E10,3.4074362E11,1.650109E11,0E0,3.6596515E10,0E0,1.461806E11,3.177051E11,9.256365E10,1.946911E11,8.325215E10,0E0,0E0,0E0,0E0,0E0,0E0,0E0,0E0,0E0,0E0,0E0,0E0,0E0,0E0,0E0,0E0,0E0,0E0,0E0,0E0,0E0,0E0,0E0,0E0],"parents":[2147483647,0,0,1,1,2,2,3,3,4,4,5,5,6,6,7,7,8,8,9,9,10,10,11,11,12,12,13,13,14,14,15,15,16,16,18,18,20,20,21,21,22,22,24,24,26,26,27,27,28,28,29,29,30,30],"right_children":[2,4,6,8,10,12,14,16,18,20,22,24,26,28,30,32,34,-1,36,-1,38,40,42,-1,44,-1,46,48,50,52,54,-1,-1,-1,-1,-1,-1,-1,-1,-1,-1,-1,-1,-1,-1,-1,-1,-1,-1,-1,-1,-1,-1,-1,-1],"split_conditions":[4.7659457E-1,9E0,4.6478873E-1,2E0,2.2589233E-2,7E0,4.796094E-1,2E0,5E0,1E0,5.7E1,5E0,2.6760563E-1,2.4E1,5.735106E-1,2.3456917E-3,2.0158242E-1,1.8601594E4,3.0967543E-1,5.2685434E4,2.3456917E-3,3.8E1,2.5E-1,2.4233492E4,5.735106E-1,-2.2867658E4,5.7E1,4.7791815E-1,1E1,1E0,5.8697444E-1,1.6874625E3,-2.0818979E4,3.5426133E3,1.5406421E4,-1.4518726E4,-6.0518013E3,1.38249E4,-4.4319253E3,5.339955E3,-3.9455137E3,3.6287066E4,9.874473E3,3.9437075E3,-2.0016761E3,-6.531536E3,1.3023104E4,6.3281E3,-4.9862336E4,-1.7043936E4,8.432167E3,1.8971852E4,3.9467388E3,-1.005E4,2.9468063E2],"split_indices":[10,6,9,6,10,6,10,5,5,5,6,5,9,6,10,10,10,0,10,0,10,6,8,0,10,0,6,10,5,1,10,0,0,0,0,0,0,0,0,0,0,0,0,0,0,0,0,0,0,0,0,0,0,0,0],"split_type":[0,0,0,0,0,0,0,0,0,0,0,0,0,0,0,0,0,0,0,0,0,0,0,0,0,0,0,0,0,0,0,0,0,0,0,0,0,0,0,0,0,0,0,0,0,0,0,0,0,0,0,0,0,0,0],"sum_hessian":[7.92E2,4.28E2,3.64E2,1.27E2,3.01E2,2.54E2,1.1E2,5.1E1,7.6E1,4E0,2.97E2,4.4E1,2.1E2,1E1,1E2,4E0,4.7E1,1E0,7.5E1,2E0,2E0,2.75E2,2.2E1,2E0,4.2E1,6E0,2.04E2,5E0,5E0,3.5E1,6.5E1,1E0,3E0,1.2E1,3.5E1,4E1,3.5E1,1E0,1E0,2.28E2,4.7E1,2E0,2E1,2.6E1,1.6E1,2.01E2,3E0,1E0,4E0,1E0,4E0,1.8E1,1.7E1,8E0,5.7E1],"tree_param":{"num_deleted":"0","num_feature":"11","num_nodes":"55","size_leaf_vector":"1"}},{"base_weights":[1.4464922E3,2.6922979E4,-2.8501068E4,4.145586E3,6.756998E4,-4.5215676E4,1.0154126E4,-2.2069352E4,7.218249E4,1.08494086E5,1.6911133E4,2.9612055E4,-6.0959906E4,-1.9176261E5,3.204452E4,9.0132234E4,-6.1078836E4,2.4608633E4,1.6455397E5,1.12508695E5,-1.1436675E4,-1.070055E5,8.813161E4,2.2617926E4,1.5209411E4,-2.0907573E5,-5.5604926E4,-3.6223894E5,1.0674167E4,1.0851327E5,-1.0151232E4,-1.4764808E4,1.1302326E4,3.1102754E4,-7.348886E3,4.353852E3,-2.9909234E4,2.280601E4,4.0138176E3,1.2172608E4,3.2127488E3,-3.3855824E4,-4.951599E3,1.3314893E4,-2.1060222E3,2.472482E3,-6.205265E3,-2.2822154E4,-4.710047E3,-5.8816167E3,1.2046372E4,6.0117E3,-4.5873355E4,-1.6191737E4,7.757595E3,6.820997E3,1.939108E4,-9.464203E3,3.134431E2],"categories":[],"categories_nodes":[],"categories_segments":[],"categories_sizes":[],"default_left":[0,0,0,0,0,0,0,0,0,0,0,0,0,0,0,0,0,0,0,0,0,0,0,0,0,0,0,0,0,0,0,0,0,0,0,0,0,0,0,0,0,0,0,0,0,0,0,0,0,0,0,0,0,0,0,0,0,0,0],"id":31,"left_children":[1,3,5,7,9,11,13,15,17,19,21,23,25,27,29,31,33,35,37,39,-1,41,43,-1,45,47,49,51,53,55,57,-1,-1,-1,-1,-1,-1,-1,-1,-1,-1,-1,-1,-1,-1,-1,-1,-1,-1,-1,-1,-1,-1,-1,-1,-1,-1,-1,-1],"loss_changes":[6.057935E11,3.9690214E11,2.3628798E11,4.9386206E11,3.1743305E11,3.022219E11,4.9676907E11,8.8089035E11,3.3432463E11,8.8916754E10,6.272086E11,1.2395885E11,1.5573051E11,3.8348407E11,3.2699384E11,2.9972552E11,7.1091644E11,3.316584E11,1.9627632E11,5.832514E10,0E0,3.293442E11,2.240027E11,0E0,3.3146982E10,1.0958701E10,1.22991804E11,2.7210803E11,8.184098E10,1.1067821E11,7.438272E10,0E0,0E0,0E0,0E0,0E0,0E0,0E0,0E0,0E0,0E0,0E0,0E0,0E0,0E0,0E0,0E0,0E0,0E0,0E0,0E0,0E0,0E0,0E0,0E0,0E0,0E0,0E0,0E0],"parents":[2147483647,0,0,1,1,2,2,3,3,4,4,5,5,6,6,7,7,8,8,9,9,10,10,11,11,12,12,13,13,14,14,15,15,16,16,17,17,18,18,19,19,21,21,22,22,24,24,25,25,26,26,27,27,28,28,29,29,30,30],"right_children":[2,4,6,8,10,12,14,16,18,20,22,24,26,28,30,32,34,36,38,40,-1,42,44,-1,46,48,50,52,54,56,58,-1,-1,-1,-1,-1,-1,-1,-1,-1,-1,-1,-1,-1,-1,-1,-1,-1,-1,-1,-1,-1,-1,-1,-1,-1,-1,-1,-1],"split_conditions":[4.7659457E-1,3.7E1,4.6478873E-1,4.028169E-1,3.8E1,7E0,4.796094E-1,2E0,3.3313236E-1,4.028169E-1,5.5E1,5E0,2.6760563E-1,2.4E1,5.735106E-1,2E0,8.08418E-2,3.3085284E-1,4.1343E-1,4.4655648E-1,-1.1436675E4,2.1837728E-1,7E0,2.2617926E4,6.838096E-1,1E0,5.7E1,4.7791815E-1,1E0,1E0,1.3E1,-1.4764808E4,1.1302326E4,3.1102754E4,-7.348886E3,4.353852E3,-2.9909234E4,2.280601E4,4.0138176E3,1.2172608E4,3.2127488E3,-3.3855824E4,-4.951599E3,1.3314893E4,-2.1060222E3,2.472482E3,-6.205265E3,-2.2822154E4,-4.710047E3,-5.8816167E3,1.2046372E4,6.0117E3,-4.5873355E4,-1.6191737E4,7.757595E3,6.820997E3,1.939108E4,-9.464203E3,3.134431E2],"split_indices":[10,6,9,9,6,6,10,6,10,9,6,5,9,6,10,5,10,10,10,10,0,10,5,0,10,3,6,10,0,4,6,0,0,0,0,0,0,0,0,0,0,0,0,0,0,0,0,0,0,0,0,0,0,0,0,0,0,0,0],"split_type":[0,0,0,0,0,0,0,0,0,0,0,0,0,0,0,0,0,0,0,0,0,0,0,0,0,0,0,0,0,0,0,0,0,0,0,0,0,0,0,0,0,0,0,0,0,0,0,0,0,0,0,0,0,0,0,0,0,0,0],"sum_hessian":[7.92E2,4.28E2,3.64E2,2.75E2,1.53E2,2.54E2,1.1E2,1.99E2,7.6E1,8.4E1,6.9E1,4.4E1,2.1E2,1E1,1E2,5.1E1,1.48E2,5.1E1,2.5E1,8.3E1,1E0,2.5E1,4.4E1,2E0,4.2E1,6E0,2.04E2,5E0,5E0,3.5E1,6.5E1,4E0,4.7E1,4E0,1.44E2,4.9E1,2E0,1.6E1,9E0,7.4E1,9E0,4E0,2.1E1,3.1E1,1.3E1,3.8E1,4E0,5E0,1E0,2.01E2,3E0,1E0,4E0,1E0,4E0,2.5E1,1E1,8E0,5.7E1],"tree_param":{"num_deleted":"0","num_feature":"11","num_nodes":"59","size_leaf_vector":"1"}},{"base_weights":[1.2566902E3,-3.6904688E4,5.491009E4,-2.2133898E4,-8.002807E4,3.995935E4,1.7978177E5,-4.1918426E4,1.8670611E4,-1.1951217E5,-3.1018898E4,3.2551355E4,1.9872175E5,3.2593625E5,1.2440503E5,-1.3833584E5,-3.2754396E4,3.331235E4,-2.504328E5,-1.2650314E5,6.7135586E4,1.422836E4,-8.029396E4,1.401529E5,2.1623975E4,6.4344016E4,4.008573E4,3.8740444E5,7.386509E3,4.0804523E4,1.7118153E5,-2.1598277E4,-1.0542519E4,-1.0462304E4,-2.4435508E3,4.395138E3,-1.5664955E4,-6.543769E3,-4.1361535E4,-1.2436208E3,-1.3612208E4,-3.1691313E3,1.3239469E4,-1.0473182E4,3.198268E3,-9.557426E3,1.5085675E4,-1.3284E3,2.2216562E4,-6.1212124E3,4.42573E3,-8.5178595E2,3.2361951E4,1.10654E4,4.1508715E4,1.6359974E3,1.42625E4,1.8013498E4,1.3963251E3],"categories":[],"categories_nodes":[],"categories_segments":[],"categories_sizes":[],"default_left":[0,0,0,0,0,0,0,0,0,0,0,0,0,0,0,0,0,0,0,0,0,0,0,0,0,0,0,0,0,0,0,0,0,0,0,0,0,0,0,0,0,0,0,0,0,0,0,0,0,0,0,0,0,0,0,0,0,0,0],"id":32,"left_children":[1,3,5,7,9,11,13,15,17,19,21,23,25,27,29,31,33,35,37,39,41,43,45,47,49,51,-1,53,-1,55,57,-1,-1,-1,-1,-1,-1,-1,-1,-1,-1,-1,-1,-1,-1,-1,-1,-1,-1,-1,-1,-1,-1,-1,-1,-1,-1,-1,-1],"loss_changes":[1.625684E12,2.9378098E11,6.0890094E11,2.8091505E11,2.246327E11,3.4166027E11,2.4272647E11,2.0222476E11,4.5751874E11,9.330806E10,1.2153877E11,3.308974E11,3.2731995E11,1.108335E11,9.859963E10,2.8338225E10,1.2598493E11,2.2717506E11,1.5406183E11,6.7430908E10,2.3543824E10,6.4599257E10,1.0625137E11,3.301294E11,4.8829674E11,1.7277823E11,0E0,7.697531E9,0E0,2.5045168E10,2.1414642E10,0E0,0E0,0E0,0E0,0E0,0E0,0E0,0E0,0E0,0E0,0E0,0E0,0E0,0E0,0E0,0E0,0E0,0E0,0E0,0E0,0E0,0E0,0E0,0E0,0E0,0E0,0E0,0E0],"parents":[2147483647,0,0,1,1,2,2,3,3,4,4,5,5,6,6,7,7,8,8,9,9,10,10,11,11,12,12,13,13,14,14,15,15,16,16,17,17,18,18,19,19,20,20,21,21,22,22,23,23,24,24,25,25,27,27,29,29,30,30],"right_children":[2,4,6,8,10,12,14,16,18,20,22,24,26,28,30,32,34,36,38,40,42,44,46,48,50,52,-1,54,-1,56,58,-1,-1,-1,-1,-1,-1,-1,-1,-1,-1,-1,-1,-1,-1,-1,-1,-1,-1,-1,-1,-1,-1,-1,-1,-1,-1,-1,-1],"split_conditions":[2.014E3,1E0,2.018E3,2.009E3,3.7E1,6.5182287E-1,1E0,4.0482667E-1,6.9851613E-1,8.8234776E-1,4.6E1,2E0,1E0,2.3526038E-1,2.2E1,1.8528758E-1,1.996E3,3.8E1,8E0,2.5E-1,2.4E1,3.0879304E-1,2.013E3,2.0158242E-1,8E0,3.9E1,4.008573E4,1E1,7.386509E3,2.019E3,3.1673455E-1,-2.1598277E4,-1.0542519E4,-1.0462304E4,-2.4435508E3,4.395138E3,-1.5664955E4,-6.543769E3,-4.1361535E4,-1.2436208E3,-1.3612208E4,-3.1691313E3,1.3239469E4,-1.0473182E4,3.198268E3,-9.557426E3,1.5085675E4,-1.3284E3,2.2216562E4,-6.1212124E3,4.42573E3,-8.5178595E2,3.2361951E4,1.10654E4,4.1508715E4,1.6359974E3,1.42625E4,1.8013498E4,1.3963251E3],"split_indices":[7,4,7,7,6,10,8,10,10,10,6,6,4,10,6,10,7,6,6,8,6,10,7,10,6,6,0,6,0,7,10,0,0,0,0,0,0,0,0,0,0,0,0,0,0,0,0,0,0,0,0,0,0,0,0,0,0,0,0],"split_type":[0,0,0,0,0,0,0,0,0,0,0,0,0,0,0,0,0,0,0,0,0,0,0,0,0,0,0,0,0,0,0,0,0,0,0,0,0,0,0,0,0,0,0,0,0,0,0,0,0,0,0,0,0,0,0,0,0,0,0],"sum_hessian":[7.92E2,4.63E2,3.29E2,3.46E2,1.17E2,2.95E2,3.4E1,2.33E2,1.13E2,6.4E1,5.3E1,2.83E2,1.2E1,8E0,2.6E1,1.9E1,2.14E2,1.08E2,5E0,6.2E1,2E0,2.8E1,2.5E1,2.5E1,2.58E2,8E0,4E0,6E0,2E0,1E1,1.6E1,4E0,1.5E1,2.1E1,1.93E2,1.03E2,5E0,3E0,2E0,5E0,5.7E1,1E0,1E0,3E0,2.5E1,2.4E1,1E0,9E0,1.6E1,5.5E1,2.03E2,7E0,1E0,1E0,5E0,9E0,1E0,1.5E1,1E0],"tree_param":{"num_deleted":"0","num_feature":"11","num_nodes":"59","size_leaf_vector":"1"}},{"base_weights":[1.2259808E3,-2.4963441E4,6.6234695E4,-4.227635E4,2.6614712E3,5.5446785E4,2.5579656E5,-1.9178817E5,-3.8644766E4,-4.3255688E4,2.7367482E4,4.7971895E4,2.4473177E5,4.43323E4,1.7395896E4,-4.413738E3,-2.0657582E4,-7.700931E4,-2.6973875E4,7.561483E4,-8.0802875E4,4.347919E3,1.358459E5,5.2422406E4,-1.449836E5,4.3007895E4,4.7507676E4,3.576496E3,-9.387175E3,-6.893475E3,-1.680027E3,1.9362533E3,2.2924875E4,-5.087072E3,-2.6526156E4,1.0563988E4,-5.9140955E2,4.528042E3,2.9182006E4,3.339089E3,1.2594093E4,-1.345625E2,-1.805567E4,-2.633897E3,1.7144713E4],"categories":[],"categories_nodes":[],"categories_segments":[],"categories_sizes":[],"default_left":[0,0,0,0,0,0,0,0,0,0,0,0,0,0,0,0,0,0,0,0,0,0,0,0,0,0,0,0,0,0,0,0,0,0,0,0,0,0,0,0,0,0,0,0,0],"id":33,"left_children":[1,3,5,7,9,11,13,15,17,19,21,23,25,-1,-1,-1,-1,27,29,31,33,35,37,39,41,-1,43,-1,-1,-1,-1,-1,-1,-1,-1,-1,-1,-1,-1,-1,-1,-1,-1,-1,-1],"loss_changes":[1.3517683E12,2.7081202E11,4.5207165E11,1.8154023E11,2.4962394E11,2.9528955E11,1.0704054E11,8.3495485E9,1.5060497E11,3.497804E11,3.5649837E11,1.8793808E11,2.7200736E11,0E0,0E0,0E0,0E0,1.5358748E11,1.1111483E11,1.5976412E11,3.1225954E11,1.2432046E11,3.3993323E11,2.8402346E11,2.5305268E10,0E0,5.02783E10,0E0,0E0,0E0,0E0,0E0,0E0,0E0,0E0,0E0,0E0,0E0,0E0,0E0,0E0,0E0,0E0,0E0,0E0],"parents":[2147483647,0,0,1,1,2,2,3,3,4,4,5,5,6,6,7,7,8,8,9,9,10,10,11,11,12,12,17,17,18,18,19,19,20,20,21,21,22,22,23,23,24,24,26,26],"right_children":[2,4,6,8,10,12,14,16,18,20,22,24,26,-1,-1,-1,-1,28,30,32,34,36,38,40,42,-1,44,-1,-1,-1,-1,-1,-1,-1,-1,-1,-1,-1,-1,-1,-1,-1,-1,-1,-1],"split_conditions":[2.016E3,2.011E3,2.019E3,1.8528758E-1,3.3313236E-1,6.5182287E-1,1E0,7E0,1E0,8E0,4.9295774E-1,6.339177E-1,6.69103E-1,4.43323E4,1.7395896E4,-4.413738E3,-2.0657582E4,3.9767197E-1,2E3,2E0,4.9295774E-1,3.5144198E-1,1E0,4.9295774E-1,1E0,4.3007895E4,1E0,3.576496E3,-9.387175E3,-6.893475E3,-1.680027E3,1.9362533E3,2.2924875E4,-5.087072E3,-2.6526156E4,1.0563988E4,-5.9140955E2,4.528042E3,2.9182006E4,3.339089E3,1.2594093E4,-1.345625E2,-1.805567E4,-2.633897E3,1.7144713E4],"split_indices":[7,7,7,10,10,10,5,5,1,5,9,10,10,0,0,0,0,10,7,5,9,10,4,9,4,0,4,0,0,0,0,0,0,0,0,0,0,0,0,0,0,0,0,0,0],"split_type":[0,0,0,0,0,0,0,0,0,0,0,0,0,0,0,0,0,0,0,0,0,0,0,0,0,0,0,0,0,0,0,0,0,0,0,0,0,0,0,0,0,0,0,0,0],"sum_hessian":[7.92E2,5.65E2,2.27E2,3.47E2,2.18E2,2.16E2,1.1E1,7E0,3.4E2,7.6E1,1.42E2,2.09E2,7E0,2E0,9E0,1E0,6E0,7.8E1,2.62E2,1.8E1,5.8E1,1.18E2,2.4E1,2.05E2,4E0,3E0,4E0,1E1,6.8E1,5E1,2.12E2,1.4E1,4E0,5.1E1,7E0,1E1,1.08E2,1.6E1,8E0,1.64E2,4.1E1,1E0,3E0,3E0,1E0],"tree_param":{"num_deleted":"0","num_feature":"11","num_nodes":"45","size_leaf_vector":"1"}},{"base_weights":[1.2477323E3,-1.3328464E5,5.07994E3,-1.572011E5,-2.0528469E4,1.2172828E5,3.5639256E1,-9.57474E4,-1.7347194E5,-9.0894836E4,1.3046851E4,2.9660488E5,7.835836E4,-1.5986844E4,4.0357453E4,-1.1795408E4,7.643E2,-1.9392266E4,-4.066199E3,-2.5413188E3,-1.04251E4,3.504821E4,1.3609375E3,-1.3712383E5,1.0108189E5,-7.089697E4,-8.054272E2,2.4583955E5,3.314413E4,-2.4752E3,-1.8093375E4,1.389952E3,1.2218251E4,-4.276908E3,-2.422652E4,8.524953E2,-3.2092688E3,3.494737E4,8.074552E3,6.361596E3,9.216462E2],"categories":[],"categories_nodes":[],"categories_segments":[],"categories_sizes":[],"default_left":[0,0,0,0,0,0,0,0,0,0,0,0,0,0,0,0,0,0,0,0,0,0,0,0,0,0,0,0,0,0,0,0,0,0,0,0,0,0,0,0,0],"id":34,"left_children":[1,3,5,7,9,11,13,15,17,19,-1,21,23,25,27,-1,-1,-1,-1,-1,-1,-1,-1,29,31,33,35,37,39,-1,-1,-1,-1,-1,-1,-1,-1,-1,-1,-1,-1],"loss_changes":[4.0951297E11,5.610088E10,4.5424768E11,1.3887734E9,6.4984457E10,2.194588E11,4.7937238E11,1.4677266E10,2.7423474E10,8.48982E8,0E0,8.671222E10,1.4606667E11,4.4259167E11,3.0459806E11,0E0,0E0,0E0,0E0,0E0,0E0,0E0,0E0,1.0290528E10,4.429175E10,5.4396453E11,1.2200508E11,9.154724E10,1.4888326E11,0E0,0E0,0E0,0E0,0E0,0E0,0E0,0E0,0E0,0E0,0E0,0E0],"parents":[2147483647,0,0,1,1,2,2,3,3,4,4,5,5,6,6,7,7,8,8,9,9,11,11,12,12,13,13,14,14,23,23,24,24,25,25,26,26,27,27,28,28],"right_children":[2,4,6,8,10,12,14,16,18,20,-1,22,24,26,28,-1,-1,-1,-1,-1,-1,-1,-1,30,32,34,36,38,40,-1,-1,-1,-1,-1,-1,-1,-1,-1,-1,-1,-1],"split_conditions":[1E0,7.683721E-1,1.3396914E-1,6E0,7.183099E-1,1E0,4.6478873E-1,5.253521E-1,6.470432E-1,1E0,1.3046851E4,1E0,7.5E-1,7.5E-1,2.5E-1,-1.1795408E4,7.643E2,-1.9392266E4,-4.066199E3,-2.5413188E3,-1.04251E4,3.504821E4,